0.003744 0.002511 0.021751 -0.006826 0.007342 -0.009969 -0.041231 0.005070 -0.017024 0.009225 0.001423 0.018879 -0.027910 0.010408 0.027365 -0.023723 0.008151 -0.036216 0.008815 -0.003841 0.001895 0.003174 0.008545 0.004675 0.022613 -0.008895 0.018666 -0.009156 -0.027167 -0.024475 -0.011027 0.003717 0.000163 0.022367 -0.021353 0.019301 -0.036423 0.009012 -0.003697 -0.005415 -0.000134 -0.034649 0.009309 -0.009711 0.060768 0.001929 -0.011530 0.003384 -0.026106 0.004553 0.005471 -0.005726 0.001525 0.006652 -0.005315 0.000777 -0.005083 0.050449 0.002789 0.027242 0.000993 -0.034899 0.000033 -0.024367 0.017467 -0.008647 0.031453 0.034217 0.027846 0.039657 0.020493 0.022450 0.005563 0.053304 0.024996 0.005054 -0.007681 -0.009229 0.020475 0.048347 -0.007772 0.047380 -0.000745 0.013654 0.025576 0.002261 0.022647 0.027595 0.006075 -0.014726 0.036422 0.032894 -0.001352 0.002097 -0.006117 -0.002527 -0.000509 0.028010 0.009159 0.002952 0.016507 -0.009031 0.008917 -0.026478 0.069705 -0.003838 0.026637 0.014799 0.007415 -0.002922 -0.007610 -0.019892 -0.058743 0.011554 -0.017857 0.005851 0.004457 -0.003760 -0.007474 -0.003548 0.007443 0.014096 0.003130 -0.005274 -0.008983 0.000624 0.015727 0.012521 -0.009550 -0.011850 0.025102 -0.008719 -0.019409 -0.006720 -0.006894 -0.006042 0.013596 -0.017197 0.000870 -0.007394 -0.016444 0.021765 0.003487 0.024956 0.002573 0.003885 -0.005797 -0.009889 -0.004690 0.012330 0.028757 -0.000045 0.004373 0.004965 -0.028976 0.004020 -0.004146 0.001484 -0.020821 0.007361 -0.000562 0.006565 0.028719 -0.010408 0.004793 0.006733 0.007148 0.028303 0.009958 0.017999 -0.004179 0.026074 -0.000209 0.009106 0.009169 -0.007979 -0.009827 -0.013779 0.001044 0.000269 0.012963 0.029632 0.006729 -0.000628 0.006099 -0.004156 -0.001076 0.004083 -0.014117 -0.005149 -0.013449 0.013057 -0.026352 -0.000666 0.008631 0.037751 0.042174 0.002412 0.012279 0.010471 0.016434 -0.001309 0.010028 0.003359 0.009019 -0.018948 0.009798 -0.021262 -0.014762 -0.009904 -0.012559 -0.013943 -0.004618 0.001698 -0.000120 -0.004782 0.016439 -0.004818 -0.011825 0.000027 0.017151 0.026502 0.009481 0.007029 0.022599 -0.021008 0.020281 -0.014370 -0.001679 0.008066 0.025648 0.006228 0.007623 0.015631 0.007426 -0.009020 -0.010147 -0.004234 -0.003206 0.030863 0.002132 -0.000695 -0.010648 -0.006421 0.000694 -0.010721 -0.002586 0.006020 -0.029475 0.001854 -0.008293 0.025710 -0.000609 0.008284 -0.043616 0.016029 0.015094 -0.007509 -0.007341 0.001864 -0.000660 -0.000762 0.012586 0.017372 0.015558 0.000112 0.028262 -0.000996 0.012043 -0.019904 -0.027140 -0.012325 -0.001814 -0.001372 0.002884 -0.007886 -0.008819 -0.011397 -0.013799 -0.016980 -0.003348 0.004987 -0.011113 -0.006124 0.010354 -0.007242 0.044474 0.005335 -0.000119 -0.001111 -0.025349 -0.000281 0.011497 -0.005959 0.006463 -0.008874 0.007413 -0.000509 -0.020830 0.043833 0.003736 0.004271 0.017301 0.007794 0.006775 0.014358 0.002576 -0.011844 0.001665 -0.005715 -0.001663 -0.010573 0.031233 0.006242 -0.017025 0.011758 0.018124 0.019783 0.001381 -0.002155 0.034900 0.028731 0.002397 0.007428 -0.011245 0.031005 0.025211 0.002824 -0.006159 0.009408 -0.019231 -0.010970 0.020245 -0.022198 -0.002897 0.017102 -0.000364 0.026106 -0.002761 0.010444 0.001787 0.033271 0.057596 -0.006339 0.014783 -0.010207 0.025402 -0.000304 0.009886 0.013610 0.018668 0.024258 -0.012673 -0.013216 -0.044314 -0.004871 -0.010291 -0.010280 -0.004557 -0.003842 0.032665 0.001203 0.002073 -0.016523 -0.028543 -0.028749 -0.004296 -0.002630 -0.012962 -0.012810 -0.007286 0.024752 0.017706 0.001788 0.000038 -0.010583 0.015748 0.015598 -0.018806 -0.028939 -0.003205 -0.008564 0.019947 -0.001032 -0.011353 0.010664 0.016256 0.015291 -0.001834 0.021158 -0.000142 -0.020098 0.017383 0.005364 0.014489 -0.007440 -0.015934 -0.017509 -0.004854 0.017193 0.008505 -0.004060 0.002970 -0.000003 -0.018897 -0.004718 -0.000158 0.044551 0.028630 0.007136 0.016214 -0.005684 0.004463 0.030788 -0.004838 0.002159 0.013616 0.010955 0.005844 -0.013525 0.066386 -0.012632 -0.009727 0.025869 0.028278 -0.001656 0.011478 0.004566 -0.017403 -0.004474 0.013207 -0.002101 -0.010824 0.007271 0.043703 -0.016723 0.005462 -0.028624 0.022272 -0.002826 -0.004070 0.030513 0.038099 -0.010549 -0.013080 -0.025270 0.039019 0.021790 -0.006191 -0.023345 -0.008485 -0.028930 -0.017086 0.052777 -0.029021 0.004330 0.033674 -0.001550 0.006742 0.003989 0.017832 0.000914 0.027680 0.039541 -0.012944 0.015799 -0.010223 -0.008086 -0.030579 0.013918 0.006464 -0.000848 0.003665 -0.010593 -0.009868 -0.030609 -0.003426 -0.016073 0.022386 0.003124 0.000547 0.029157 0.003308 -0.004354 0.002731 -0.010138 0.023413 0.025767 0.023575 0.000918 -0.005886 0.009475 0.027631 -0.012343 0.007947 0.013316 0.000357 -0.003584 0.003803 0.001913 0.026618 0.019113 -0.004024 -0.000152 -0.022088 0.021311 -0.013488 -0.027109 0.020218 -0.003957 0.008289 0.028091 -0.042848 0.007605 -0.006658 0.000006 0.004045 0.012421 -0.001811 -0.017949 0.002220 0.004104 0.015710 -0.001147 0.001137 0.003481 -0.002351 -0.008863 0.012748 0.030445 0.005302 0.009471 0.007687 -0.009329 -0.029637 -0.003382 0.002722 -0.018895 0.009367 -0.004314 -0.010210 0.001014 0.005612 -0.005282 -0.005579 -0.001634 -0.000587 0.005328 -0.000741 0.000904 0.001299 -0.017268 0.015471 -0.013144 0.026652 -0.001211 0.014395 -0.014385 0.015026 -0.020179 -0.001730 -0.000448 0.030366 -0.000966 -0.001627 0.009107 0.007525 0.000169 0.011764 -0.001081 0.022167 0.011247 -0.012584 0.010026 0.001556 -0.013119 -0.010901 -0.016884 0.000876 0.023192 -0.004827 -0.000214 0.005042 0.016357 0.012549 0.005822 0.005948 -0.002897 -0.020004 0.041921 -0.005088 0.012490 -0.004240 0.006267 0.003745 -0.013295 -0.007065 0.006836 0.015606 -0.031412 -0.008018 -0.004591 -0.013423 0.005852 0.001072 -0.036546 0.032518 0.003629 0.008360 -0.005669 0.010651 0.017596 -0.018785 0.005294 -0.006709 0.003976 0.027462 -0.012434 0.013529 -0.016389 -0.017166 0.003247 0.038362 -0.012968 0.050353 -0.008293 0.025225 -0.006547 -0.019358 0.011810 -0.003416 0.043060 -0.020905 -0.020524 -0.004183 0.006053 0.001003 -0.007501 0.015392 0.002831 -0.013517 0.004578 0.022996 0.000453 -0.004788 -0.010168 -0.029412 0.002936 -0.007033 -0.007843 0.022003 0.011339 -0.007836 0.024197 -0.004526 0.023172 0.000584 0.001647 0.014663 0.038315 -0.007363 0.030108 0.026917 0.009333 -0.011873 0.022158 0.040449 0.005850 0.030670 -0.003238 -0.020959 0.012394 -0.006400 -0.009436 -0.018060 0.013315 0.016339 -0.000465 -0.017876 -0.052693 0.002600 -0.003851 -0.006918 0.019027 0.011688 0.001620 -0.022445 -0.015111 0.022086 0.039398 -0.005930 0.008517 0.000594 -0.007191 0.002852 0.050322 -0.056135 0.006419 0.032255 -0.001117 0.019827 -0.008078 -0.003515 0.001437 0.056098 0.062031 0.006913 -0.007101 -0.007111 -0.009394 -0.023254 0.031947 0.013961 -0.012198 -0.022681 -0.009094 -0.026563 0.012074 -0.003916 0.004493 -0.024941 0.010254 -0.002024 0.023041 0.034063 -0.004966 -0.011956 0.034414 0.009829 -0.021641 -0.019509 0.010078 0.023926 -0.009981 -0.022077 -0.017138 0.008387 0.014112 0.002077 0.014604 -0.042386 -0.000726 -0.002196 0.026418 -0.001891 0.016371 0.009957 0.009963 0.011751 -0.011594 -0.024757 -0.003603 0.018411 -0.003090 0.029206 -0.013227 0.012102 -0.004550 0.009998 0.038857 0.015635 -0.000631 -0.006923 0.021020 -0.007103 -0.008387 -0.003736 -0.008608 -0.003362 0.002501 -0.043893 -0.033071 -0.006479 -0.030869 0.013407 0.002840 0.018870 0.018590 0.001528 -0.000364 0.005797 0.005143 0.034793 -0.009366 -0.006186 -0.024448 0.017876 0.028038 0.001214 0.019737 -0.005858 0.001660 -0.006489 0.010530 -0.023794 0.001394 -0.031049 -0.013715 0.001257 0.002339 -0.029436 -0.003866 -0.004387 -0.002401 -0.038782 -0.010491 0.004235 -0.022568 0.034273 -0.015867 0.016725 -0.003549 -0.000576 0.026735 0.024148 0.006564 0.019776 -0.014491 -0.004141 0.006974 -0.007474 0.007182 0.002274 -0.020317 -0.006430 -0.011401 -0.014255 0.009460 -0.007494 -0.000465 0.002417 -0.009344 0.019625 -0.002746 -0.020923 -0.027097 0.003902 0.002628 0.044621 0.003199 0.028763 0.029223 -0.007717 0.003141 -0.004885 0.002988 0.001661 -0.006133 0.001294 -0.017032 0.002637 0.000508 0.005814 0.007785 -0.003448 0.011230 -0.000663 -0.001530 -0.007948 0.007674 0.014936 -0.006176 -0.013370 -0.022822 -0.001343 -0.006345 0.000357 0.006513 -0.018129 -0.010287 0.012151 0.010319 -0.002244 0.007494 0.010222 0.003214 0.023585 -0.001550 0.000415 0.005825 -0.004104 0.001367 -0.002520 0.012005 0.019778 -0.010391 -0.004133 -0.001528 0.005707 -0.009039 -0.000004 0.014279 0.008370 0.016272 0.012791 -0.002188 0.011249 0.029452 -0.005344 -0.000016 0.017179 0.022522 0.005067 0.010565 0.018565 -0.001456 0.000489 0.014915 0.012984 -0.000398 0.005715 0.005734 -0.006471 0.006090 0.007691 -0.006884 0.000376 -0.001315 0.024471 0.000032 -0.006863 -0.020938 0.002451 -0.003514 -0.002708 0.018697 0.016020 -0.003948 -0.007895 -0.022763 0.012222 -0.003346 -0.008536 -0.018529 -0.006135 -0.007142 -0.002384 0.020506 -0.014530 0.003316 0.023248 -0.007766 0.000149 0.006220 0.010063 0.000084 -0.006545 0.014311 -0.003703 -0.003113 -0.002247 -0.000128 -0.024627 0.001431 -0.004978 -0.012501 -0.003638 -0.010915 -0.000289 -0.009140 0.008465 -0.008578 0.027157 0.009157 0.004317 0.001020 -0.006516 0.007251 0.005268 -0.004778 0.006902 0.003191 0.006888 -0.012280 0.008239 0.005787 0.003468 -0.006582 -0.000511 0.001489 0.002011 0.006689 0.005659 0.010488 0.002622 0.000467 0.006751 0.002155 0.010057 -0.002678 0.006082 0.001231 -0.006160 0.004596 -0.001699 0.000698 -0.001860 0.009551 -0.001380 0.003827 0.003536 0.004305 0.005255 0.010400 0.009289 -0.010355 0.006909 -0.002773 -0.001212 -0.004720 0.002745 0.002587 0.003970 -0.008037 0.003372 0.000518 0.010687 0.003946 0.000286 -0.002980 0.005146 -0.002557 -0.001885 0.003182 -0.003774 -0.002668 -0.003520 0.002028 -0.000386 -0.003165 0.002565 0.001811 0.002259 -0.000642 -0.003483 -0.009815 0.015303 0.002516 -0.000914 0.002711 -0.005360 -0.000160 -0.002156 -0.000479 0.000689 -0.001178 -0.006201 -0.004685 -0.002132 -0.009040 -0.006506 0.001422 -0.007203 -0.000653 0.000636 -0.005880 -0.001469 0.003616 -0.010780 0.011047 -0.001590 0.003536 0.002263 -0.005934 0.004134 0.005488 0.000670 0.003883 -0.001686 0.000945 -0.000160 -0.003049 0.008718 0.002865 -0.004911 0.004424 0.005272 0.003456 0.002104 -0.003145 0.016762 0.002994 0.013676 0.003807 0.004593 0.002466 -0.006315 0.004118 0.000149 -0.010123 0.032903 0.009533 -0.007019 0.005896 0.010109 0.043092 -0.014805 0.002788 0.014606 0.000292 0.024240 0.007641 0.006071 -0.021105 0.002386 -0.018601 0.047867 -0.006334 0.051618 0.025460 0.018053 0.026860 0.007979 -0.006266 0.002120 0.021253 -0.007583 0.023582 0.015084 0.000305 -0.005042 0.010345 0.022244 0.012543 0.001061 0.020908 0.016031 -0.013243 0.001685 0.000220 -0.014711 -0.007374 0.003163 -0.020924 -0.028129 0.003007 -0.006051 0.048409 0.000959 0.030629 0.002566 -0.004622 -0.003426 0.011381 0.006369 0.014789 0.001005 0.000307 -0.020922 0.028239 0.047712 0.007340 0.027530 -0.005687 -0.004553 -0.007192 -0.008739 -0.021112 -0.008381 0.010898 -0.000826 -0.001392 -0.002762 -0.020051 0.019777 -0.007644 0.004728 0.010938 0.002416 0.001698 -0.038337 0.003348 0.028037 0.016062 -0.006764 -0.011483 0.010405 -0.001618 0.011253 0.006088 -0.029455 0.000709 0.012868 -0.006316 0.008190 -0.004653 -0.005854 -0.001489 0.038032 0.025789 -0.002219 -0.011845 0.010780 -0.002248 -0.013353 0.024288 0.028071 -0.004263 0.003093 -0.001358 -0.004247 0.032822 -0.006188 0.017883 0.023248 0.001909 0.006781 0.019269 0.022849 -0.002418 -0.003336 0.015373 0.009240 0.011938 0.011721 0.017845 0.005581 -0.015712 0.007271 -0.008504 -0.010317 -0.004960 0.017292 -0.013373 0.000287 0.014825 0.006076 0.005490 0.004626 0.017277 -0.026584 0.004011 -0.021174 -0.013560 0.028305 0.008301 0.035004 -0.000426 -0.021438 -0.006075 0.001782 0.004348 -0.011976 -0.019568 0.014344 -0.001180 0.018372 0.029464 -0.001948 0.000692 0.001869 0.011472 0.003032 0.011946 -0.021290 0.021655 0.028952 -0.008974 0.009253 -0.007122 -0.008150 -0.020333 -0.006863 0.005151 0.025999 -0.001404 0.012509 -0.006712 -0.005918 0.015178 -0.002512 0.001765 -0.003449 0.004179 0.000582 0.006866 0.002206 -0.006531 -0.000279 -0.004887 0.013956 0.022399 -0.011280 -0.023742 -0.040121 -0.005449 -0.018684 0.005880 0.002876 -0.001501 -0.001117 -0.011937 -0.032933 -0.005133 -0.000703 -0.005883 0.030063 -0.014245 0.005359 -0.005524 -0.018083 -0.011183 0.000327 0.012230 0.005652 0.038666 0.012298 0.009580 -0.002928 -0.001196 0.043566 0.014380 -0.008785 0.000545 -0.009764 -0.003191 -0.020885 0.003962 0.010580 0.008949 -0.013220 -0.013361 0.029910 -0.003410 -0.025470 -0.023493 0.029718 0.000637 0.016695 0.008068 0.005405 0.003931 -0.009451 -0.006468 0.012104 0.007755 0.004060 0.001358 0.002202 0.000309 0.008300 0.006540 0.011703 0.001122 -0.003091 0.000624 0.000156 0.000175 0.003811 0.008847 0.001558 0.004487 0.003725 0.002636 0.001429 -0.007500 -0.004863 -0.001348 -0.004623 -0.002477 0.011309 -0.006210 0.002276 0.005836 0.006295 -0.001863 -0.011407 -0.006168 0.001155 -0.000301 -0.008523 -0.003413 -0.007931 0.006632 0.001070 -0.005493 -0.002586 -0.004404 0.000430 0.003356 -0.000877 -0.004619 -0.006418 -0.001619 -0.003204 -0.003453 0.001223 0.000780 0.009040 -0.004688 -0.001614 -0.002031 0.000908 -0.002274 -0.001497 -0.006628 -0.004834 0.005495 -0.002003 -0.009873 -0.001927 0.007226 -0.002712 0.005639 -0.003343 0.004941 -0.009989 0.001798 -0.000802 0.007309 -0.005337 0.005275 0.008187 0.004294 -0.006608 0.005393 -0.001058 0.001540 0.002178 0.003023 0.007283 0.004255 -0.009728 -0.001341 0.002531 -0.004839 -0.007201 -0.000943 0.000790 -0.000318 0.009542 0.006029 -0.009912 0.001260 0.004683 0.004279 0.015842 0.003118 0.000436 -0.004599 -0.005631 0.002282 0.003527 -0.001083 -0.001063 0.006104 -0.001095 -0.004688 0.001649 0.001006 0.005938 -0.000928 -0.004118 0.000558 -0.002742 -0.015658 0.004153 -0.005451 0.008152 -0.003119 -0.005139 0.001610 0.002612 -0.004035 0.008880 0.001938 0.019863 -0.013320 0.000887 -0.007868 0.001519 -0.005074 -0.005162 -0.014804 -0.010722 -0.004570 -0.000025 -0.001367 -0.016710 -0.001098 0.001242 0.019126 -0.002360 0.006035 0.000231 -0.007819 -0.008905 0.000708 -0.028398 0.013956 -0.001237 -0.007309 0.004801 0.001223 0.002344 -0.003592 0.013533 0.028230 0.029767 0.009119 -0.012818 0.012527 0.004173 0.004667 0.002801 0.027441 -0.014671 0.014315 0.026811 -0.002223 -0.012185 0.025978 0.005071 -0.024132 0.000002 -0.009637 -0.006466 -0.002227 0.013812 0.014709 0.010326 0.017729 -0.015156 -0.012045 0.006952 0.014425 0.009037 -0.002396 0.009300 -0.004438 -0.004852 0.007934 -0.000049 0.019386 -0.001279 -0.014907 0.002882 -0.003771 0.010106 -0.008352 -0.003085 -0.005774 0.025076 0.000309 -0.002352 0.010560 0.002027 -0.014731 0.007247 0.004245 -0.004585 0.006130 0.010723 -0.001171 0.005397 0.020271 -0.000050 -0.016695 -0.004273 0.008042 0.000154 -0.007967 0.004375 0.002978 -0.011046 -0.001471 0.003675 -0.003836 0.026081 -0.008999 0.013857 -0.002877 -0.001037 -0.002372 0.000987 -0.000131 0.006780 0.004207 0.001640 -0.001629 0.000011 0.012890 0.006998 0.002806 -0.009061 0.005482 -0.004006 0.007632 0.006000 -0.004469 0.001296 0.003147 -0.004448 0.006069 -0.004734 0.003753 0.006252 -0.000603 -0.002823 -0.005286 0.004315 0.009482 0.003777 0.001925 0.003153 0.000352 -0.008001 0.009445 -0.004298 0.007044 -0.005886 -0.004478 0.002464 -0.001396 -0.001494 0.002520 -0.003156 0.000752 -0.003575 -0.001035 0.000485 -0.005828 0.004399 -0.002591 0.003111 0.007650 -0.004913 0.000441 -0.001007 -0.004867 -0.000472 -0.008975 0.005486 0.001425 -0.005774 -0.003441 0.005250 -0.006955 0.000583 0.008432 -0.005267 -0.004445 -0.001589 0.004161 -0.003607 -0.000118 0.004266 0.008206 0.003525 -0.000138 0.002781 -0.003271 -0.004277 -0.005607 -0.000664 -0.001963 -0.002497 -0.002385 0.001764 -0.000491 0.003909 0.001661 -0.002210 -0.001314 0.004108 -0.000668 0.004613 0.003073 -0.004702 0.006235 0.010928 -0.001695 0.001202 0.004904 0.002393 0.009140 0.007809 0.002947 0.008250 0.000251 -0.009374 -0.002270 0.006750 -0.010598 0.007937 -0.005247 -0.008396 0.004226 0.006112 -0.000277 -0.002563 0.004740 0.008441 -0.002454 -0.001403 0.005130 -0.002936 0.004124 0.008618 -0.003650 0.009369 -0.001537 -0.006056 0.004461 -0.001259 -0.001240 -0.007648 -0.001180 0.002511 0.006559 -0.005046 0.003170 0.013036 0.003655 -0.002136 -0.005811 0.001830 0.000370 -0.003759 -0.002607 0.002578 -0.004062 0.011308 -0.015431 -0.001017 -0.011341 -0.000903 -0.011715 0.008673 0.006936 -0.010396 0.006077 -0.010117 -0.006458 0.005878 -0.002150 -0.002457 -0.011369 -0.000926 -0.008439 0.010709 0.001983 0.000222 0.001484 -0.002176 0.002438 -0.004929 0.001366 -0.000634 -0.000923 0.000409 -0.010881 0.001395 0.011492 -0.004019 -0.009507 -0.011779 -0.005169 -0.001919 0.000942 0.006618 0.005097 0.006459 0.011063 -0.001706 -0.001220 0.001743 -0.001284 0.003808 -0.001365 0.008480 0.010142 -0.011480 0.010515 0.008066 -0.001368 -0.003912 0.009872 0.006746 0.006622 0.007868 -0.000567 0.004043 -0.003904 0.000705 0.005428 -0.008790 -0.002639 0.002399 0.000941 0.004624 -0.000271 -0.004914 -0.008329 -0.000749 0.002488 -0.004723 -0.000241 0.005498 -0.003059 -0.002532 -0.000966 0.006408 0.005398 -0.000303 0.005796 -0.000408 0.007367 0.001609 0.019218 0.003153 0.005936 -0.003061 0.003287 0.000796 -0.005219 -0.004213 0.007217 -0.009402 0.008633 0.008349 -0.001462 -0.002545 0.002564 0.001678 0.002498 -0.007835 -0.000202 -0.001974 -0.007470 -0.005460 0.001266 -0.000564 -0.003723 -0.001334 -0.007768 0.003874 0.003203 0.004081 -0.007048 0.003735 -0.007616 -0.011275 -0.012952 -0.001349 -0.006960 -0.003009 -0.003488 -0.003374 0.001363 0.008498 -0.002030 0.003510 0.008441 -0.006591 0.008838 0.001220 -0.005292 -0.002327 0.004079 -0.000777 0.004010 -0.007676 0.003477 -0.000143 0.002961 0.005502 -0.005472 0.003903 0.009837 -0.002548 0.003932 -0.000442 -0.003296 -0.001547 -0.009017 0.002645 0.004151 -0.000690 0.008869 -0.001020 -0.006646 0.004427 -0.001443 -0.000081 -0.008068 -0.000344 -0.001546 0.005764 -0.001499 -0.005296 0.003085 -0.003668 -0.003594 0.004697 0.006283 -0.004937 0.000334 0.001075 -0.000097 -0.007089 -0.007857 0.003453 0.006258 0.002146 -0.001718 0.002834 0.004713 -0.002750 -0.001166 -0.000884 -0.000542 0.004647 0.002728 -0.001701 -0.009699 -0.000047 -0.006274 0.010644 -0.012077 -0.000695 -0.001613 -0.000510 -0.005368 -0.002166 -0.009914 -0.004545 0.008238 0.005061 -0.003145 -0.002116 0.001903 -0.002206 -0.002909 0.007247 -0.001461 0.002682 0.014682 0.052306 -0.006787 0.045770 -0.009758 0.011362 0.015499 0.039412 0.007099 -0.012163 0.015974 -0.033311 -0.044719 0.029252 0.027141 0.050612 0.008435 0.008898 0.017361 0.008770 0.037006 -0.029984 -0.029149 0.042991 -0.002061 0.051729 -0.023913 -0.001717 -0.008839 0.005070 -0.005849 -0.008520 -0.008213 -0.002542 0.015460 0.005099 -0.037288 0.039006 0.005108 0.014359 -0.000893 0.003380 -0.009539 0.032299 0.031244 0.025804 -0.012054 0.054974 -0.022126 -0.059679 -0.017892 0.001212 -0.033478 -0.018577 -0.001742 -0.017224 -0.026287 0.008780 0.032930 -0.004333 -0.046547 0.005523 -0.014500 0.013301 0.017844 -0.001458 -0.005213 0.065038 0.028811 0.055787 -0.029683 -0.003070 -0.004940 0.065292 -0.003349 -0.003362 0.004942 -0.008781 0.023955 0.004763 0.018984 0.001679 0.004045 0.011829 0.010779 0.054035 0.017157 -0.054469 -0.000121 -0.037354 0.015259 -0.002770 -0.038515 -0.003130 0.034614 -0.004618 0.006264 0.002288 0.052910 0.041487 0.001108 0.000519 0.011981 0.000297 0.047746 -0.001925 0.058047 0.057719 0.067275 0.018547 -0.000893 0.015564 0.000860 -0.025904 -0.088922 0.039259 -0.002537 0.019832 0.041658 -0.002085 0.012200 -0.022955 -0.001358 0.026974 0.008687 0.010227 -0.013651 0.006218 0.049025 0.014240 -0.009373 -0.006494 -0.010496 0.013218 0.004283 -0.010465 -0.004813 0.020752 0.009844 0.024566 -0.011178 0.009059 -0.007907 0.008763 0.023634 -0.000748 0.037521 0.011897 -0.045781 -0.006815 -0.014903 -0.004034 0.001723 0.003201 0.001878 -0.010248 0.030019 0.001459 0.009604 -0.000593 -0.010512 -0.010735 -0.006893 0.004222 0.024544 0.017466 0.004252 0.011328 0.000381 -0.004649 0.016847 -0.011045 0.000121 -0.026090 0.028771 0.001332 -0.007939 0.021817 0.004333 -0.035064 0.016283 0.045284 0.006435 0.038878 0.005758 -0.013262 -0.005659 -0.006708 -0.007040 -0.032604 0.023178 0.043931 -0.010166 -0.023243 -0.042457 0.012897 -0.002275 0.001263 0.046816 0.007191 -0.004389 -0.019637 -0.018206 0.023703 0.008665 -0.007873 -0.014716 0.004546 -0.015660 -0.005416 0.014973 -0.040551 -0.006690 0.012499 -0.000284 0.048941 0.001629 0.010059 -0.007345 0.001960 0.043894 -0.005709 0.008474 -0.019284 -0.005200 -0.005286 -0.002809 -0.011413 -0.006767 -0.001666 -0.010342 -0.016201 0.000232 0.004842 -0.023317 -0.010620 -0.015663 0.007103 0.004573 0.008115 0.000836 -0.011777 0.005159 -0.016702 0.003960 -0.012195 0.000426 -0.011813 -0.010030 -0.020596 0.029963 -0.005085 0.000785 -0.021300 0.027596 -0.002697 -0.016435 -0.018330 -0.003348 -0.005597 0.003291 0.008407 0.003704 0.010045 0.032653 0.006306 -0.003536 0.026862 -0.013423 -0.002542 -0.006148 -0.000860 0.000336 -0.006006 0.001256 0.002714 0.001449 0.010313 -0.001903 -0.008438 0.002636 0.010487 -0.003218 -0.000863 0.005064 0.017763 -0.004738 -0.019320 0.007507 -0.012642 0.008652 0.048188 -0.004578 -0.000945 0.015143 0.027034 -0.007745 -0.006626 0.036175 -0.000661 -0.010041 0.010543 0.032686 0.007721 0.009761 0.005089 -0.012360 -0.004903 0.023090 -0.019705 0.007941 0.021355 0.022913 -0.012661 0.005875 -0.022346 0.025728 -0.010077 0.003181 0.024673 0.027065 0.004629 -0.017058 -0.023571 0.026140 0.022890 -0.000328 -0.024603 -0.003824 0.007986 -0.012838 0.022666 -0.007543 -0.002632 0.022489 -0.004369 0.009873 -0.004217 0.016516 -0.002306 0.003670 0.021273 -0.001298 0.004714 -0.006191 0.023761 -0.033758 0.021928 -0.002074 0.000452 0.010056 -0.016025 -0.006370 -0.017186 0.002392 -0.023224 0.042685 -0.004884 -0.004384 0.016812 -0.015297 0.004959 0.022161 -0.013495 0.013092 0.018495 0.001690 0.001254 -0.015382 0.016296 0.033863 0.011192 -0.008921 -0.003842 0.017794 0.011015 0.009597 0.005533 -0.001092 0.005538 0.001150 0.005209 -0.005927 0.008979 -0.002567 0.014481 0.018028 -0.002559 0.026715 0.030086 -0.009326 -0.006234 -0.005105 -0.001221 0.011985 0.015579 -0.000514 -0.002162 0.038396 -0.003199 0.015736 0.005027 -0.006076 0.011961 0.006025 0.003800 0.003663 -0.012116 -0.000339 0.016718 0.005893 0.004207 0.009354 -0.002065 -0.000074 -0.027922 0.011819 0.000989 -0.015593 -0.000248 0.010421 -0.022922 -0.001108 0.016480 0.007883 0.018189 0.016481 -0.001526 -0.011533 -0.002605 0.001682 -0.012624 0.006979 0.019192 -0.001199 -0.002237 -0.008835 -0.004466 0.001614 -0.002791 0.027293 -0.008586 -0.004429 -0.004599 -0.004566 0.000767 -0.007722 -0.009001 0.005242 0.010251 0.004226 0.023089 -0.011646 -0.003095 -0.008966 -0.004140 0.000782 0.023205 -0.002835 0.012271 0.000807 -0.010527 -0.003736 -0.002759 -0.001984 -0.000714 -0.001589 0.024238 0.006613 -0.003259 -0.004191 0.010050 -0.003899 0.005611 0.017258 -0.000965 -0.004875 0.010038 -0.011774 -0.003158 -0.016786 -0.003022 0.004726 0.022019 0.010331 0.033506 0.028841 0.010981 0.007757 0.003563 0.014186 0.004184 0.003085 -0.017647 -0.003190 0.008215 -0.022502 -0.000331 0.028289 0.035725 -0.004315 0.011382 -0.011446 -0.007999 0.021970 -0.014364 -0.010644 0.030575 0.003232 0.033534 0.010247 -0.009784 -0.026725 0.003494 -0.002518 0.013819 -0.007816 0.017734 0.001629 -0.005239 -0.004650 0.003134 0.005974 0.013636 0.030873 -0.003537 0.007031 -0.009531 0.003813 0.024757 0.010253 -0.005395 -0.007589 -0.022717 -0.020813 0.004019 -0.032563 0.014550 0.006514 -0.000870 -0.028151 0.013017 0.016256 -0.002903 -0.013264 0.008833 0.013442 0.006065 -0.001697 -0.001527 -0.006879 0.012869 0.014238 0.036786 0.007930 -0.005053 0.001368 0.042125 -0.006459 0.006912 0.007101 0.000571 -0.012019 -0.002278 0.003092 -0.008484 0.000372 0.006740 0.011578 0.026853 0.031474 0.012362 -0.007677 -0.044421 0.026273 0.001528 -0.007430 -0.001270 0.066519 0.003041 0.006018 0.000303 -0.008596 -0.001725 -0.004584 -0.004911 -0.005028 0.010794 0.033894 -0.017118 -0.001278 0.032190 0.037777 -0.001139 -0.007978 0.052983 0.003321 -0.022251 -0.015350 -0.004040 -0.000405 -0.008466 0.009312 0.002342 -0.007880 0.008345 0.000114 -0.002733 -0.000527 -0.003008 -0.001884 0.008847 -0.005404 0.003436 -0.004835 0.002729 0.007064 -0.009175 -0.005427 0.003063 -0.006399 -0.001980 -0.001399 -0.006849 0.001325 0.003532 -0.004082 0.003308 -0.002587 -0.004221 -0.003128 0.003492 -0.005121 -0.005775 0.006444 -0.001142 -0.001521 0.001754 -0.006295 0.005416 -0.007351 -0.008329 -0.003134 -0.011504 0.000461 -0.006591 -0.003534 -0.001006 -0.000390 -0.002903 0.010704 -0.000942 -0.000738 -0.004356 -0.007277 0.001655 0.000390 0.004976 -0.005901 -0.008241 0.006804 -0.001782 -0.003671 0.004089 0.002982 0.008723 -0.000095 -0.005017 -0.005520 0.000695 -0.007355 -0.002246 -0.005294 -0.005178 0.000524 -0.016654 0.005595 -0.006646 -0.004073 0.004343 -0.001958 -0.005571 -0.000560 -0.004963 0.004160 0.006463 0.003541 0.001543 -0.008200 -0.006591 -0.005630 0.003764 -0.004474 -0.003762 0.000759 0.004578 0.000329 -0.003975 -0.005814 0.003028 0.006484 -0.003286 0.004135 0.000161 0.002842 -0.012732 0.009334 -0.007160 0.004487 -0.006995 0.006929 -0.003483 -0.004043 -0.001178 0.002787 0.004144 0.004847 -0.000020 0.008828 -0.000914 -0.005185 -0.005619 -0.001098 -0.003120 -0.006836 -0.007542 0.002126 -0.009717 -0.001283 -0.002114 -0.004118 0.002128 0.000414 0.005524 0.000687 0.007868 0.000535 0.002614 0.000540 0.000987 0.010325 -0.000761 -0.012178 -0.001118 0.003958 -0.005871 0.002972 -0.001144 -0.003667 0.003312 0.005265 -0.000394 -0.003636 -0.003792 -0.001599 -0.000348 -0.005516 0.003031 -0.008270 0.000444 0.003329 0.005553 -0.000257 -0.004301 -0.001810 -0.001213 -0.004024 0.002857 0.007051 -0.003312 0.000780 -0.004016 0.005637 0.002460 0.000429 0.003924 -0.002287 0.006000 0.004192 0.007028 0.002577 -0.008084 -0.004387 -0.000126 0.009701 -0.000094 -0.006481 -0.008120 -0.006054 0.000796 0.001410 0.004100 -0.004188 0.000111 -0.003720 0.004299 -0.002807 0.000409 -0.005370 -0.010912 -0.000121 0.005466 0.005779 0.004832 -0.005637 0.010418 -0.003676 0.002253 -0.002522 -0.006212 -0.002174 0.004279 -0.000778 0.004874 0.000137 -0.006199 0.008077 0.014601 0.001246 0.001083 0.002056 -0.001604 -0.006820 0.001286 -0.003252 0.008284 -0.001347 0.003075 -0.001671 0.005882 0.007447 -0.005071 -0.000396 0.001059 -0.000856 0.007760 -0.003084 -0.002462 0.007834 -0.005984 -0.005527 -0.004764 -0.002346 0.006236 -0.001585 0.002392 0.013231 0.006212 0.005072 0.032259 0.003058 0.004944 -0.004803 0.002889 0.026276 0.020437 -0.009546 0.006750 -0.009076 0.019320 -0.023100 -0.005983 -0.012235 0.019919 0.003084 0.015646 0.026290 0.026426 0.022889 0.033027 0.007847 0.000075 0.031239 0.003391 -0.006003 -0.019877 0.003054 0.003959 0.025917 0.011589 0.015845 -0.010677 0.035058 -0.011044 -0.002934 0.001548 -0.007237 -0.005580 0.000302 0.008038 0.011957 -0.006626 -0.015647 0.013289 0.019502 -0.007870 0.036848 0.001286 0.004631 -0.021217 0.017018 -0.003652 -0.024371 0.017532 0.003815 -0.028537 0.025545 0.042412 0.007002 0.034963 0.000673 0.000550 -0.025969 0.011344 -0.013015 -0.016168 0.044631 0.025826 -0.013372 -0.023281 0.003458 0.028089 0.008143 -0.000169 0.036524 0.006142 -0.002109 -0.029851 -0.016394 0.046268 0.007827 0.006002 -0.014293 0.027509 -0.013757 0.011542 -0.020894 -0.032092 0.000197 -0.003513 -0.013264 0.050710 -0.006652 -0.001602 -0.003380 -0.002468 0.030120 0.005016 0.004527 -0.030710 0.013648 0.013877 0.002675 -0.004089 0.012850 0.025849 -0.012679 -0.016635 0.020063 0.005318 -0.005896 0.021252 -0.030277 0.002799 0.013949 0.018522 0.009395 0.011513 0.009719 0.013570 0.004764 0.002277 -0.002035 -0.018577 0.000138 -0.000122 -0.002089 0.006664 0.006444 -0.006384 -0.001473 -0.013404 0.008965 0.009327 -0.019305 0.003163 -0.004505 -0.005682 0.000724 0.008678 0.027174 0.010085 -0.009879 0.000692 -0.002781 0.013656 -0.013160 0.008124 -0.005799 0.005481 0.023931 -0.001611 0.014640 -0.004547 -0.003625 -0.006580 0.000364 0.002350 -0.006633 0.000123 -0.002848 0.002990 -0.000696 -0.020117 -0.004526 -0.001406 0.003917 0.001490 0.003109 0.004934 0.004334 -0.006282 0.001344 0.008715 0.009444 0.000217 0.006162 -0.009297 -0.010675 -0.007388 -0.012002 -0.006862 -0.000271 0.005728 0.015341 0.006490 0.028707 0.011880 0.007082 -0.005377 0.023020 0.022243 0.009461 -0.000006 0.003841 -0.013362 0.019567 0.001681 0.013543 0.010786 -0.007465 0.004250 -0.001976 0.015637 0.025704 0.022105 0.004234 -0.010356 0.024311 0.007392 0.000785 -0.000357 -0.007996 0.004888 0.007049 -0.000178 -0.007093 -0.011034 -0.011317 0.002319 -0.006212 0.049354 -0.014550 0.003262 0.007148 0.001972 0.005061 0.005825 0.011467 -0.011181 0.000870 -0.008109 0.015274 0.000101 -0.002697 -0.006481 -0.003864 -0.000212 -0.011213 0.019539 -0.009027 -0.027616 -0.014107 0.009405 0.000718 -0.003356 -0.033810 -0.002781 0.016789 0.014530 0.018077 0.018267 0.000365 -0.042221 -0.012055 0.003370 0.006074 0.004222 -0.011677 -0.006385 -0.001358 0.014327 -0.004466 -0.002393 0.018067 -0.014200 -0.001682 0.008568 -0.000805 0.001007 0.009434 0.036974 0.004853 -0.006534 -0.026705 0.036028 -0.017789 0.002471 -0.001385 -0.027653 0.000236 0.010019 0.022606 0.020660 -0.000117 -0.004075 -0.010888 0.020076 0.028062 -0.000668 0.008134 0.053581 0.004005 0.001492 0.058104 0.029963 -0.012199 0.033566 0.003282 0.005742 -0.009556 0.002287 -0.007650 -0.009708 0.037614 0.038567 0.002466 0.026609 -0.027881 -0.002132 0.011365 0.027299 0.004332 0.013874 0.001318 -0.000034 0.001955 0.024500 -0.011075 0.010674 0.012998 -0.000878 0.007684 -0.002292 -0.015122 0.007082 0.028347 -0.005361 0.059037 -0.010756 -0.001243 0.018872 0.006149 -0.015012 -0.002490 0.027038 0.004833 -0.017576 0.001061 0.000740 -0.000469 -0.004464 0.036997 -0.030202 0.022234 0.005517 -0.038711 -0.054193 0.000647 0.007814 0.000046 0.001139 0.025148 0.024486 0.020504 -0.001906 0.004527 -0.015531 0.010552 -0.003419 0.030345 0.003546 -0.002347 -0.013714 0.002245 -0.015669 -0.004072 -0.018818 0.000842 -0.008159 0.014470 -0.030350 0.021247 -0.022079 0.003449 0.007179 -0.000313 0.001805 0.014486 0.014067 0.026722 0.010869 0.016886 -0.008876 -0.004012 0.009030 -0.027293 -0.013961 -0.028261 0.000445 -0.001174 0.006629 0.025625 -0.014111 -0.004234 -0.001091 -0.007147 -0.006243 -0.000646 0.000602 -0.022978 0.003144 -0.015452 0.003859 -0.032981 -0.039827 -0.016286 -0.007790 -0.007440 0.027190 0.000802 -0.001196 -0.008172 0.002888 0.009818 -0.009532 -0.000991 0.016482 -0.010473 0.001874 0.032235 -0.003036 0.005569 0.002014 -0.014614 0.003017 0.010272 -0.020388 0.002404 0.018333 -0.001380 -0.003171 0.017219 0.006808 0.008893 -0.000111 -0.001835 0.012647 0.021096 0.000076 0.002744 0.005940 0.021541 0.023622 0.002159 -0.008590 0.038484 0.014344 0.014971 0.016239 -0.015646 0.004035 -0.003773 0.000155 0.019369 0.003380 0.001988 -0.000994 0.003150 -0.001439 -0.007349 0.000580 -0.008608 0.034268 -0.004405 0.026759 -0.001186 -0.005722 -0.008414 -0.007783 -0.016585 -0.027181 0.005893 0.009097 0.029163 -0.047721 -0.001138 -0.018309 -0.002089 0.008940 -0.007440 -0.001655 -0.004584 -0.002210 0.001717 0.007523 0.000508 0.004694 0.004581 0.005904 -0.007020 0.012437 -0.000397 -0.002069 -0.000876 0.004890 0.004717 -0.005586 0.002967 0.001912 -0.001330 0.000253 -0.008810 -0.006912 0.008980 0.009597 0.005509 -0.001766 -0.002340 0.004332 -0.005002 -0.003110 0.006657 0.005112 0.004762 -0.000220 0.006698 0.003881 0.001715 -0.000859 -0.004318 -0.001535 0.007996 0.003567 -0.003011 0.003000 0.002688 0.010218 0.008576 -0.003416 -0.001939 -0.005978 -0.001075 0.002222 -0.004122 0.002457 0.000208 -0.004240 -0.002563 -0.008530 -0.003737 0.000655 -0.003839 -0.002553 -0.004685 -0.000140 0.006167 0.003506 0.008120 -0.005898 -0.001708 0.006580 0.001987 -0.003984 -0.014250 -0.010121 -0.002302 0.000807 -0.000851 0.001805 0.002055 0.001279 0.010950 -0.001884 0.002918 0.003071 0.000366 -0.004036 -0.009007 -0.001087 0.003518 -0.000991 0.000898 -0.004502 -0.002160 0.000933 0.002667 0.006137 -0.002046 0.008670 0.002540 0.003027 -0.002344 0.003144 -0.001668 0.005656 0.000417 -0.009353 0.002264 -0.000608 0.008112 -0.003273 -0.009270 -0.009955 -0.003510 0.002783 0.004053 -0.004169 -0.009096 0.001292 -0.002838 -0.025598 -0.005773 -0.016413 -0.012611 0.002684 0.012193 0.015928 -0.008150 0.019178 0.020014 0.000589 0.000712 0.004531 0.008580 -0.004113 -0.010220 -0.016337 0.022671 0.004993 0.024970 -0.005916 -0.002407 -0.005131 0.005129 0.003276 -0.000893 0.019983 -0.006372 -0.006800 0.037537 -0.016109 0.006063 -0.012263 -0.008106 -0.002331 0.008195 0.021987 0.015255 -0.008214 -0.002895 0.002647 -0.000415 -0.000160 0.006763 0.020618 0.024297 0.018366 0.001351 0.018179 0.006746 0.014285 -0.002780 -0.006842 0.015948 0.012928 -0.006222 0.009412 0.022950 -0.006395 -0.019407 0.016786 0.024986 -0.003902 0.011011 -0.001544 -0.008955 -0.008231 0.001889 0.003512 -0.013380 0.006134 0.017416 0.005970 -0.012836 -0.031058 0.023024 -0.007170 -0.003323 0.013251 0.019472 0.001007 -0.023459 -0.021620 0.014783 0.015589 -0.009926 -0.019777 -0.010816 -0.022272 -0.007032 0.027213 -0.031074 -0.002439 0.023939 0.003932 0.003306 -0.000167 0.000565 -0.002315 0.032909 0.040314 0.001937 -0.003930 0.003606 -0.013136 -0.019789 0.003258 0.007287 -0.000540 -0.000909 -0.012322 0.001285 -0.000658 -0.009386 -0.007076 0.000898 0.019441 0.003674 0.027139 -0.004501 -0.005597 0.014235 0.004662 0.000558 0.007430 0.010369 -0.014868 0.001203 0.003119 0.013104 0.015288 -0.000591 -0.005310 0.009787 -0.009269 0.003621 0.013859 -0.004176 0.013625 0.000988 0.001147 0.007711 0.003054 -0.002955 0.004700 -0.001368 -0.000948 0.003470 0.022021 0.028707 0.005859 -0.004186 -0.000097 0.000705 0.005228 0.010561 0.012031 0.024781 0.005041 0.009638 0.009555 0.010332 0.017205 -0.002303 0.004992 0.000127 -0.008880 0.002784 0.004307 0.021616 -0.008835 0.012381 0.000508 0.002272 -0.013006 -0.001944 0.001240 -0.006473 -0.009398 0.007460 -0.017233 0.001932 0.009951 0.003811 0.012562 0.005759 0.005729 -0.023142 -0.001164 0.017590 0.005674 -0.016671 0.004290 -0.008932 -0.000302 -0.024618 0.003959 0.003618 -0.002211 -0.002537 -0.013594 -0.002061 -0.013029 -0.010487 0.000150 -0.016406 -0.011009 -0.012737 0.000058 -0.006213 0.007888 -0.016925 0.019185 0.007736 -0.004133 -0.002225 0.012691 -0.002717 0.008665 0.007989 0.012922 -0.001712 0.005633 -0.008055 -0.005761 -0.004993 0.000804 -0.014527 -0.010884 -0.005783 0.011467 0.002676 0.006836 0.034070 0.003698 -0.000901 -0.000087 0.016621 0.001540 0.008708 0.001826 -0.005458 -0.001555 0.000049 0.010710 -0.001152 0.006720 -0.015206 0.003575 0.007278 0.007592 0.004348 -0.004035 -0.000798 0.002364 0.004734 0.006477 0.002948 0.000125 -0.008847 -0.005011 0.004245 -0.002229 0.008014 0.006313 0.014169 0.011442 -0.004178 -0.012695 0.010113 0.005687 0.011233 0.010780 -0.001091 0.005629 0.014053 -0.001354 0.004167 0.006012 -0.011531 0.010629 -0.004520 0.006347 0.009325 -0.008228 0.005451 -0.000886 -0.012254 -0.006381 0.000112 0.009121 0.001355 -0.006218 -0.000670 -0.008575 -0.007326 -0.000930 0.005241 -0.004824 0.007051 -0.001464 -0.003323 0.000229 -0.007908 0.001562 0.002283 -0.004632 0.003996 -0.002779 -0.005771 0.001803 -0.001350 -0.000052 0.009357 -0.006767 -0.002349 -0.006490 -0.005218 -0.002153 -0.004108 -0.000490 -0.001082 -0.001331 0.006609 0.000260 0.005289 -0.004637 -0.003005 -0.015386 0.004171 -0.006094 0.004155 0.000097 0.016359 -0.011115 0.004950 -0.001668 -0.006941 0.002681 0.005097 0.007693 0.001668 -0.001122 0.002112 -0.001502 0.002535 0.004433 -0.004702 -0.011929 0.005730 -0.010848 0.007205 0.007395 0.005409 0.004105 0.001946 -0.010470 -0.001203 -0.002164 0.000747 -0.000511 -0.007991 0.006995 0.005481 -0.016705 0.002280 -0.009122 -0.017592 -0.011331 -0.027602 0.008618 -0.002286 0.015134 -0.000999 0.001349 -0.004808 0.021869 0.006931 -0.009760 -0.018757 -0.004637 0.003281 -0.004887 0.034491 -0.008746 0.031825 0.030051 -0.009036 0.009534 -0.002530 0.019440 0.020120 0.002621 -0.000586 0.010738 0.016268 0.012149 0.004004 0.006101 -0.019460 -0.000448 -0.008450 -0.008901 -0.007658 -0.006411 0.005009 0.002812 0.034890 -0.003083 -0.024500 0.006884 -0.007866 0.005462 0.038864 0.000134 -0.005472 0.009124 -0.022726 -0.008545 -0.001096 0.032481 -0.002956 0.014158 0.017060 -0.003633 0.009249 0.003508 0.007271 -0.000526 0.008124 0.020620 -0.010517 -0.003782 -0.005628 0.005375 0.005441 0.028368 0.031356 0.018654 0.003302 0.007060 0.013041 0.033977 0.009141 0.021393 0.020431 0.021586 0.004840 0.002848 -0.002520 0.015946 0.005763 0.001019 0.036191 0.008795 -0.001226 0.016767 -0.000764 -0.017336 0.013405 0.011034 -0.006312 -0.003790 -0.011528 -0.007054 0.009956 0.000518 0.044991 -0.005586 0.016839 -0.005355 -0.005007 -0.002219 -0.003497 0.000800 -0.030298 0.002092 0.019860 0.029665 -0.018890 0.004329 -0.010991 -0.006692 0.002211 0.031113 -0.043034 -0.018344 0.016210 0.009102 -0.005552 -0.014060 0.019544 0.029920 0.004222 0.002884 -0.002577 0.034959 0.011409 0.010076 0.021586 -0.009380 -0.008924 -0.000162 -0.042562 -0.018041 -0.022273 0.003300 0.009911 -0.004170 -0.006019 -0.027748 0.057807 0.000325 0.036419 -0.001633 0.008381 0.012246 0.002778 0.008133 -0.004265 0.012125 0.002416 0.008810 0.000465 0.000261 0.018186 -0.004465 0.007033 0.019135 0.009420 -0.009668 0.014845 -0.010519 -0.010365 0.002033 0.003466 0.001615 -0.007432 -0.013934 -0.001043 -0.001929 -0.003457 0.000951 0.006126 -0.008586 -0.011638 -0.006436 -0.005672 0.003344 -0.005425 0.003622 -0.018162 -0.000687 -0.015588 -0.000995 0.021255 0.009726 0.000886 0.023529 -0.004880 -0.002992 -0.001896 0.019402 -0.015671 0.000514 0.019337 0.012289 -0.002254 -0.020189 -0.001118 -0.010459 0.002692 -0.004420 0.016892 0.002287 0.050940 -0.000593 -0.012108 0.004361 -0.014750 0.005937 -0.002815 -0.000074 -0.005194 -0.013069 0.006268 0.009717 0.012410 0.008057 0.016150 -0.014664 -0.030608 -0.007562 -0.004749 0.009461 0.010151 -0.017464 -0.002000 0.017267 0.004774 -0.013847 -0.003418 -0.016331 -0.009560 -0.005952 0.006281 0.041600 0.014415 -0.002782 -0.007518 0.020907 0.018108 -0.000994 -0.009567 0.003207 0.007752 0.028377 -0.025952 0.018792 -0.015394 0.003071 -0.009751 0.017856 0.010425 0.014134 0.019536 0.011629 0.023687 0.006947 -0.022521 -0.000251 0.007791 -0.026970 0.011600 -0.015489 0.006819 0.002399 0.013468 0.033473 0.004611 -0.003624 0.008802 -0.004744 -0.015827 -0.002605 -0.006327 -0.011756 0.002889 -0.008460 -0.007863 -0.039782 -0.043434 -0.022509 0.025387 -0.002419 0.032835 0.006742 0.005443 -0.003288 0.003316 -0.000242 -0.006143 -0.012264 0.006173 -0.022343 0.020212 0.035422 -0.002951 0.019653 -0.010462 0.006179 -0.004827 0.003432 -0.028720 0.000788 0.020154 -0.018309 0.000368 0.000679 0.019645 0.013605 0.001897 -0.003594 0.003696 -0.002304 0.002028 -0.003807 0.020112 0.029572 0.012506 0.003229 -0.006467 0.024227 0.020999 0.015350 0.004386 -0.012996 -0.002522 0.003910 -0.003710 -0.002213 -0.008056 -0.005811 0.001004 0.008617 0.006121 -0.008131 -0.006364 -0.007495 0.024755 -0.005018 0.020405 0.008957 -0.009916 0.001873 0.002684 -0.009406 0.001364 0.005031 0.030070 0.021039 -0.038547 -0.002455 -0.003826 0.015529 0.005472 -0.007147 -0.004681 0.000787 -0.003136 0.006069 -0.008201 0.007600 0.012212 0.006485 0.006442 -0.001772 -0.000800 -0.008656 -0.000813 0.000859 -0.003667 0.011151 -0.003187 0.006074 0.002632 -0.006632 -0.007309 0.001956 0.001278 -0.008040 0.000747 -0.004689 0.001767 0.005476 -0.003045 -0.001128 -0.003487 0.000077 -0.008181 0.002643 -0.003306 -0.008996 -0.003899 0.010649 -0.001328 -0.004145 0.002605 -0.001869 0.006337 -0.005214 0.004231 -0.009026 -0.003979 0.008955 -0.003867 0.002531 -0.003547 0.002478 -0.000891 0.005953 -0.005230 -0.004457 -0.000793 -0.004959 0.004462 -0.000597 -0.006045 -0.000985 0.004863 -0.001619 -0.007072 -0.007221 -0.013452 0.001950 -0.011038 0.002916 -0.001339 -0.000151 0.006898 -0.000362 0.000277 -0.001064 0.002366 -0.006642 0.001314 0.006235 -0.000025 -0.002663 -0.002256 -0.010928 -0.004189 -0.004076 -0.005011 0.003932 0.009771 0.009705 0.000373 0.003525 0.007364 0.013666 -0.008816 0.005549 -0.004740 0.007746 -0.011994 -0.004370 0.001529 0.001008 -0.004904 -0.008487 0.009454 -0.007302 -0.004311 -0.008913 0.002733 -0.003583 0.001273 -0.003577 -0.006577 0.005251 -0.006981 -0.003688 -0.001817 -0.000295 0.008189 -0.002759 -0.003873 -0.007850 -0.001539 0.006139 -0.004626 0.007420 0.001989 -0.007044 0.004982 -0.008064 -0.002691 0.004311 -0.003454 -0.002258 -0.014979 -0.002154 -0.002403 -0.005464 0.007336 -0.005075 -0.002171 -0.000675 0.014666 -0.000881 -0.001234 -0.000399 -0.002462 -0.000296 -0.002378 0.002341 -0.001979 0.005709 0.006938 -0.006507 0.001021 0.007708 0.002420 0.006713 -0.004048 0.007477 -0.010348 -0.008807 -0.002987 0.001924 -0.003084 -0.002015 0.009892 -0.002216 -0.004516 0.004324 -0.010400 -0.003459 0.004693 0.006707 0.013238 0.003484 -0.002035 -0.003886 -0.007267 -0.003179 0.005510 0.000778 -0.002947 0.001940 0.005784 -0.004010 0.005923 0.005697 0.002856 -0.000507 0.005111 0.001044 0.011936 -0.000140 0.001816 0.004663 0.004456 -0.002684 0.002036 -0.002658 -0.000368 -0.008182 0.001224 0.004121 0.000490 0.004522 -0.002328 0.007092 0.005692 -0.005001 0.003474 -0.012814 -0.000018 0.001334 0.005624 -0.011566 -0.007102 0.005412 -0.001972 0.000141 -0.005716 -0.002411 -0.001149 -0.004741 0.002143 -0.003994 -0.002634 -0.010309 0.006836 -0.003502 0.006199 -0.001048 0.009843 -0.004159 -0.007159 -0.006434 0.004474 -0.001270 0.000460 0.001923 0.003305 0.014196 -0.006553 0.017778 -0.018165 0.025558 -0.006244 0.023525 -0.003422 0.026906 0.026008 -0.002955 -0.011451 -0.004373 -0.032388 0.028025 0.028472 0.000012 -0.002178 0.000266 -0.001180 0.019302 -0.006875 0.001075 0.002554 0.028377 -0.005908 -0.001064 0.013668 0.020945 0.034145 0.002038 0.001972 -0.007282 -0.027907 0.006563 0.007687 0.003810 -0.015742 0.021619 -0.009432 0.020904 0.024159 0.010356 0.009517 0.030208 0.027762 0.022901 0.006063 0.031852 0.000007 -0.012324 -0.009398 0.001473 -0.002054 -0.031834 -0.004446 -0.012263 -0.005461 0.000518 0.008370 0.022037 -0.014697 0.006922 0.004567 0.000806 0.006956 -0.012377 -0.015228 0.029628 -0.001950 0.014207 -0.020838 -0.002269 -0.005610 0.035507 0.023685 -0.000757 -0.004739 -0.002554 0.023299 -0.006263 0.006851 -0.005811 0.009243 -0.015469 -0.002498 -0.009291 -0.037369 -0.043945 -0.000008 -0.027777 0.037817 -0.001828 0.005731 -0.000711 -0.003524 -0.001937 -0.003771 0.004496 0.019809 0.025920 0.003745 0.001083 0.024844 -0.006201 0.031976 -0.016757 0.027857 0.019545 0.050242 0.021174 0.011026 0.016630 -0.002704 -0.010097 -0.013707 0.044299 0.000140 0.038319 0.022182 0.006408 0.023226 0.010554 0.023836 0.009939 0.024171 0.013376 0.009418 0.014856 0.008963 0.029220 -0.014476 -0.011720 -0.008057 -0.019312 -0.000387 0.011899 0.011739 -0.004864 -0.007181 -0.019257 0.022785 0.012442 0.002780 -0.011428 0.021794 -0.006944 0.005732 0.005778 0.012006 -0.003783 0.000491 0.003990 0.000951 -0.028685 0.016527 0.001528 -0.000124 -0.017646 0.014445 -0.006701 0.014534 0.025288 0.002866 -0.005269 0.023825 0.012557 0.019710 0.014424 0.010689 -0.001609 -0.015385 -0.017314 -0.000142 -0.024336 -0.014506 0.008456 -0.021371 -0.003489 0.011681 0.030375 0.011474 -0.010126 0.002752 -0.001939 0.010926 0.003732 -0.006018 -0.013433 0.020566 0.017651 0.038050 -0.003096 -0.001446 -0.011535 0.055146 0.016504 0.000041 0.000189 0.009139 0.013045 -0.002485 -0.008989 -0.007000 0.016167 -0.012443 0.006672 0.022430 0.007760 -0.020269 -0.009357 -0.051900 0.017001 -0.005172 -0.011955 -0.005643 0.034330 0.006022 -0.006073 0.005916 0.007716 0.023683 -0.007502 -0.006660 0.015380 0.015818 0.034754 -0.008658 0.007449 0.032238 0.043912 0.001252 -0.001054 0.010770 0.000755 -0.021043 -0.010957 0.012748 0.008827 0.023534 0.014218 -0.001219 0.031932 0.008364 0.046073 0.021717 -0.010011 -0.001355 -0.017706 0.016152 0.035211 0.000919 -0.012429 -0.001153 0.047840 0.023917 -0.020154 0.008742 0.009712 0.009668 0.004395 0.017017 -0.000146 0.034968 0.007882 0.030583 0.021373 -0.006549 0.037115 0.047141 0.004322 -0.021223 -0.003292 0.007699 0.039417 0.055176 0.011510 0.007093 0.048691 0.028417 0.005376 -0.012218 -0.005960 0.018731 0.003224 0.002369 -0.029133 -0.039265 -0.015991 0.005921 -0.006253 -0.003205 0.022342 -0.012480 0.003881 -0.034309 0.016514 -0.005913 0.015000 -0.004327 0.026154 -0.034624 -0.000729 0.034768 0.006370 0.026612 0.021265 -0.002997 -0.009946 0.005568 -0.011125 0.010125 -0.008413 0.048772 -0.006457 -0.006021 -0.034062 0.003284 0.002980 -0.000598 0.025743 -0.012745 0.002828 -0.029625 -0.001876 -0.009057 -0.006760 -0.004574 0.007316 0.035470 0.029158 0.018245 -0.008452 0.005242 0.001515 -0.001948 -0.000095 0.033548 -0.001203 0.011017 -0.009056 -0.051180 -0.034134 -0.007246 -0.011262 -0.017550 0.045714 -0.001213 0.007566 -0.012864 -0.004896 0.006882 -0.016608 0.003181 0.049012 -0.002852 -0.004131 0.043281 -0.011555 -0.001662 -0.052522 -0.023697 0.002631 0.000520 0.045554 0.026034 -0.020419 -0.018164 0.008553 0.024720 0.009780 -0.012472 -0.000632 0.000206 0.010230 -0.009065 0.003502 -0.033382 0.018815 -0.014050 0.018064 -0.006956 0.026361 0.039787 0.011254 0.032378 0.009091 -0.031368 -0.004610 0.006190 -0.026220 0.028497 -0.009092 0.020561 0.003377 0.010815 0.022251 0.001897 -0.003808 0.009747 -0.005521 0.001488 0.002883 -0.011235 0.004650 -0.001849 -0.009541 -0.033771 -0.070304 -0.028979 -0.025015 0.039090 -0.004420 0.040937 0.022949 -0.001714 -0.010226 -0.010717 -0.006879 0.001629 -0.020447 0.007362 -0.023380 0.017804 0.038771 0.002779 0.025549 -0.000715 0.005304 -0.012252 0.006976 -0.016656 -0.003318 0.000213 -0.036967 -0.000893 0.016947 0.012615 0.020550 0.008625 0.002252 -0.022739 -0.003068 -0.002058 -0.028707 0.034748 0.016519 -0.006350 0.002871 -0.008087 0.026547 -0.002389 0.013509 -0.019523 -0.016643 0.005329 -0.012797 -0.003226 -0.001294 -0.003828 -0.019055 -0.003545 0.007870 -0.014024 0.000261 -0.001762 0.008955 0.021160 0.008665 0.022266 0.005825 -0.006414 0.015245 0.007028 0.000364 0.031560 -0.003330 0.037544 0.028942 -0.029672 -0.006037 -0.001419 0.016554 0.007240 -0.002923 0.026488 0.021083 -0.011331 0.014295 -0.003580 0.026226 -0.006200 -0.001798 0.005426 -0.002038 -0.006601 0.005506 -0.016725 0.011294 0.021745 -0.008011 -0.014117 -0.002214 -0.004483 0.013466 0.003284 0.001212 0.014526 0.014375 0.000078 -0.000413 -0.003506 0.017754 0.017835 0.007352 0.004985 -0.009216 -0.027291 0.004913 0.009664 0.001731 -0.009794 0.010746 0.004114 0.010105 0.016615 -0.002727 0.007591 0.017573 0.015423 0.029232 -0.005561 0.025820 -0.004457 -0.004048 -0.008275 -0.000633 0.016907 -0.016143 0.001706 -0.002209 -0.007298 -0.002647 0.032001 0.009474 -0.003314 0.002014 -0.001166 -0.007561 0.020358 0.004877 -0.004069 0.023520 0.027712 -0.001617 -0.007340 0.005817 0.007326 0.009206 0.005530 0.012750 -0.002934 -0.020400 0.006365 -0.002423 0.010048 -0.004201 -0.009988 -0.013866 0.008901 0.001968 -0.018914 -0.021273 -0.015547 -0.034430 0.036460 0.005915 -0.011796 0.007399 0.002790 -0.000110 -0.001553 0.003492 0.017512 0.001161 0.006561 -0.007794 0.020088 0.010627 0.012785 -0.016167 0.009538 0.024628 0.040520 0.009574 0.011454 0.017922 0.003626 -0.005215 0.001052 0.038036 -0.005019 0.030282 0.006527 -0.010677 0.012019 0.001366 0.016199 0.020728 0.008811 0.009724 0.007541 0.007011 0.031972 0.004205 -0.006193 -0.009559 0.041215 -0.001838 0.009589 0.010203 0.003457 0.001853 -0.001823 0.003472 -0.012815 -0.002880 -0.017855 0.016968 0.018487 0.002133 0.022711 0.043242 0.002860 0.011241 -0.004569 -0.005498 0.003710 -0.002932 0.018908 0.004124 0.032827 0.026057 0.022075 0.009387 0.005635 0.025817 -0.011736 0.010811 -0.010949 0.022604 0.023603 0.011435 0.017357 0.008660 -0.003769 -0.010869 0.007134 -0.006113 -0.002311 0.003628 0.007225 -0.008015 0.013968 -0.010124 -0.001034 0.002461 -0.003930 0.017060 0.015287 0.002559 -0.007531 -0.010325 0.016772 -0.008043 -0.014167 0.037141 -0.005187 -0.003760 -0.045840 -0.009854 -0.005799 -0.007378 0.019061 -0.012087 -0.001158 -0.021375 -0.019168 -0.012293 -0.007459 -0.012831 0.001965 -0.013051 -0.003942 -0.003444 -0.018769 0.011629 -0.005817 0.006660 0.002560 0.013689 0.003496 0.017020 -0.000166 -0.015275 0.015296 -0.001774 -0.003279 -0.000401 -0.009308 0.003134 -0.019410 0.004106 0.008091 0.011244 -0.007438 0.004398 0.030079 0.003747 -0.010262 0.006286 0.037036 -0.003509 0.004104 -0.006099 0.000967 -0.003190 -0.005449 -0.001530 -0.004568 0.003373 0.000119 0.000780 0.002439 0.001616 0.003139 -0.002059 0.001783 -0.003452 0.010262 0.001090 0.001266 -0.000876 -0.010156 0.006367 -0.001677 -0.003551 -0.003275 -0.002108 0.005191 -0.005927 -0.002041 0.004835 -0.005280 0.008595 -0.001685 0.002826 -0.002826 -0.004599 -0.002792 -0.001138 -0.008127 -0.005352 0.003108 0.003644 -0.007531 -0.004937 0.003257 0.003053 0.006188 -0.003815 0.008213 -0.006233 0.002559 -0.007872 0.001599 0.007217 0.006463 0.001002 0.000032 0.000155 -0.001383 -0.000413 -0.002253 -0.001731 -0.005167 0.010297 -0.007909 -0.004756 0.003598 -0.001408 0.004312 0.000863 -0.004738 -0.002928 0.005316 0.001024 0.002652 -0.003911 -0.001931 -0.002446 0.001704 -0.004281 -0.002647 -0.016064 -0.004304 -0.005830 0.002348 0.009378 -0.003944 0.012095 0.007433 0.003366 0.000412 0.001705 0.004261 -0.006464 0.001129 -0.004048 0.004913 0.004693 -0.000464 0.002358 0.007548 -0.002477 -0.006942 -0.002139 0.001693 0.001186 -0.004038 0.001956 0.000380 -0.006601 0.001366 0.000207 0.007327 0.005551 0.004409 -0.005633 -0.002204 -0.005546 -0.001542 0.001322 -0.008614 -0.003699 0.003232 -0.002306 0.007855 -0.003013 -0.004650 -0.009039 -0.007088 0.005963 0.005197 0.001219 -0.001738 -0.005387 -0.001798 0.000797 -0.002948 -0.001142 0.001151 -0.007359 0.001165 -0.003338 0.003996 -0.001347 0.009738 -0.000263 0.000448 -0.003805 -0.000620 0.004287 -0.002098 -0.000511 0.007150 0.000066 -0.003770 0.006266 -0.001980 0.000351 0.004621 0.005092 0.003033 0.002728 -0.000855 -0.004228 0.005986 0.002231 0.002460 0.003943 -0.003452 -0.006564 0.004395 -0.004513 -0.000257 0.001607 -0.008909 0.008056 0.004301 -0.000290 -0.001829 0.011562 -0.002488 0.008372 0.003425 -0.004574 0.003177 -0.006934 0.005094 0.003763 0.006341 0.008470 0.008933 -0.005462 0.007738 -0.006014 0.007833 -0.005047 0.000663 -0.000327 -0.006831 0.008917 0.004408 -0.004716 0.004211 -0.002948 -0.000668 -0.008455 -0.003940 -0.000957 0.000414 -0.002197 0.001878 -0.003622 0.001259 0.000632 0.002176 0.002160 -0.001158 -0.005807 0.003048 -0.014267 -0.001305 -0.000675 -0.001460 -0.004309 0.004171 0.003093 -0.010193 0.003535 0.004044 0.005597 -0.007381 0.005191 0.001872 -0.000819 -0.010594 0.001044 0.000639 -0.002251 -0.016264 -0.008435 0.002842 0.007828 -0.000786 0.006391 -0.000458 0.000515 0.015569 0.000170 0.017607 -0.013887 0.017191 -0.011988 -0.007620 -0.017753 -0.021046 0.009031 0.003438 0.019739 0.009927 -0.008023 0.006969 0.031165 -0.006783 0.009067 -0.003287 -0.029214 0.006515 -0.025608 -0.016109 0.008455 -0.005466 0.033910 0.006563 -0.025545 -0.026254 0.005444 -0.000151 -0.002377 0.022668 -0.003873 -0.007819 -0.013035 0.031784 -0.012129 0.011697 -0.012341 0.009703 -0.006020 0.009847 -0.015607 0.009329 0.007539 -0.002455 -0.014366 -0.000664 -0.011982 -0.003073 0.000654 -0.003264 0.027341 0.001419 0.035773 -0.019565 0.017401 0.025250 -0.005344 0.009178 -0.002126 0.017398 0.000617 -0.001167 0.040863 0.008196 -0.011101 0.019047 0.005100 0.010869 0.013406 0.010205 0.008539 -0.012354 -0.000159 -0.002282 -0.003475 -0.011190 -0.001634 0.034785 0.018067 -0.024199 0.003250 0.014614 0.027280 0.032703 0.042318 -0.006768 0.009628 0.008021 -0.003199 0.008675 0.001222 0.022516 0.010556 0.005589 0.008301 -0.038277 0.001616 -0.003605 -0.003246 -0.005777 0.028567 -0.003372 -0.009118 -0.008115 -0.014348 -0.033629 0.003970 0.004813 0.009984 0.006436 -0.003162 0.007149 -0.012611 -0.000410 -0.035783 -0.008549 -0.003877 -0.003833 0.009188 -0.004063 -0.006117 -0.004070 0.006171 0.005318 -0.000366 -0.004982 -0.015758 0.010645 0.013869 0.004894 0.017581 -0.003220 -0.024151 0.000448 -0.002319 -0.003162 0.021468 -0.007635 0.005550 0.003786 -0.000619 -0.009325 0.002342 0.006322 -0.009142 -0.011924 -0.003384 -0.001126 0.000207 -0.009852 0.016338 -0.014048 -0.008860 -0.000504 0.030966 -0.004546 -0.002426 0.003564 -0.017154 -0.000141 -0.005854 0.006640 0.022387 0.000852 -0.008503 0.001989 0.002869 0.006927 0.003312 -0.001593 0.017691 0.012922 -0.005067 0.025143 0.008384 -0.004626 0.002674 0.007432 0.012095 -0.005383 0.003289 0.002653 -0.002616 0.019834 0.013057 0.004059 0.003490 -0.005037 0.003054 0.010182 0.003816 -0.004362 -0.008523 -0.005337 0.000793 0.010101 0.016987 -0.000077 0.009482 0.008997 -0.001433 0.011678 -0.001169 0.003194 0.008618 0.018467 0.005245 0.039394 -0.012389 -0.002362 0.011103 0.005946 -0.007199 -0.004714 0.006064 -0.011926 -0.000051 0.006559 0.002735 -0.004354 0.001541 0.016850 -0.018511 0.014845 -0.004682 -0.017169 -0.030183 -0.003335 -0.003228 -0.010423 0.000812 0.002711 0.004784 0.004479 0.005207 -0.008044 -0.001250 0.001202 0.003895 0.001559 0.006026 0.005307 0.007167 -0.002891 -0.000338 0.007666 0.011547 0.008582 -0.007512 -0.005737 0.006987 0.000414 0.011975 -0.003998 0.003384 -0.008540 0.001192 0.005332 0.009325 0.000471 0.004946 0.005005 -0.000178 0.003501 -0.003882 0.001397 0.014706 0.003819 0.007062 0.000181 -0.006841 -0.009835 -0.000449 0.002884 0.006866 -0.006325 0.007116 0.006324 0.004396 0.007861 0.004880 0.000360 0.001645 -0.010018 -0.001656 -0.005375 0.016490 0.000534 0.000948 0.003506 -0.004089 0.005585 -0.004585 -0.002686 0.006446 -0.004415 -0.011939 0.004546 -0.001817 0.002013 -0.004494 -0.000642 0.002410 0.009313 -0.004108 0.004290 0.004049 0.005014 -0.004547 -0.008189 -0.000571 -0.004170 0.008042 0.000252 0.003040 0.001423 0.002587 0.004060 -0.000139 -0.007359 0.000691 -0.001122 -0.002011 -0.000994 0.005583 -0.006670 -0.003931 -0.002375 -0.005407 0.010765 0.002207 -0.007102 0.002738 -0.005029 -0.000366 0.003042 0.002375 0.001126 0.004850 0.005731 0.003750 0.018601 -0.002041 -0.001863 0.004530 0.000890 -0.000974 0.008637 0.001283 0.008041 -0.004929 0.006230 0.001854 0.000022 -0.003586 -0.009218 0.006197 0.003318 -0.007446 0.001586 -0.003076 -0.007817 -0.001090 -0.001361 0.007793 -0.005978 -0.003627 0.000760 0.005343 0.011301 -0.021675 0.015601 -0.004039 -0.004870 0.003686 -0.000731 -0.010745 -0.001375 -0.002767 -0.004858 -0.007862 -0.003014 -0.009640 -0.003329 0.003921 -0.007248 -0.005798 0.005556 0.008688 0.000722 0.005420 0.003416 -0.001594 0.002267 -0.001742 0.003783 -0.006509 0.003149 0.000519 -0.002813 -0.001597 -0.004307 0.003706 0.001607 0.010671 0.011954 0.002976 0.000883 -0.003012 0.001882 0.005189 0.001467 -0.003923 0.002277 -0.002559 0.008051 0.004678 0.004117 0.005915 0.001755 0.006284 0.005776 0.008989 0.003425 0.010728 0.004899 -0.005069 -0.003739 -0.002376 0.003569 -0.007141 0.001832 0.000570 0.018971 0.000775 0.004478 0.001703 0.003118 -0.009348 -0.009091 0.010497 0.000661 -0.006935 -0.001428 0.006650 0.005254 -0.003959 -0.008335 -0.000877 -0.003000 0.000840 0.000531 -0.007016 -0.004494 -0.000113 -0.007299 -0.011222 0.005997 -0.002066 -0.001599 0.007180 -0.011944 0.010058 -0.000965 0.002455 -0.008858 -0.008288 -0.003882 0.006172 0.000046 -0.009125 -0.012280 0.001499 0.000829 -0.005462 0.002606 0.001701 0.004822 -0.006785 -0.011282 -0.005733 -0.003971 -0.003762 0.002056 -0.002788 -0.001915 -0.005416 0.010754 -0.000991 -0.005160 -0.000151 -0.005080 0.000461 0.002968 0.002268 0.003458 -0.001534 0.000856 0.006315 0.001778 -0.001617 0.002311 0.008133 -0.009381 -0.003169 0.001643 0.003733 -0.006721 0.000783 0.002416 0.001413 -0.002830 0.003943 0.002186 -0.000213 0.009298 0.003717 0.004995 0.008714 -0.007830 0.004951 -0.016416 -0.001261 0.005876 0.000719 0.000617 -0.003170 -0.006591 -0.001576 -0.004060 0.000358 0.002987 0.006275 -0.004887 -0.002070 0.001217 0.005599 -0.007906 -0.009043 0.000491 -0.002920 0.000714 0.000310 -0.000841 0.001801 -0.000895 -0.009312 -0.000476 0.001272 0.000540 -0.004889 0.003819 -0.002942 0.008068 0.002201 0.004883 -0.010564 0.005431 -0.003490 0.000693 -0.005244 -0.008017 -0.002863 0.001977 0.005496 -0.000361 0.000770 0.010089 0.001473 0.001093 0.008378 -0.004726 0.005326 -0.000819 0.002795 -0.004572 -0.003968 -0.003991 0.003757 -0.000877 -0.005716 0.006288 -0.008801 0.006798 -0.002048 0.006942 -0.007520 0.001374 0.006361 -0.007400 0.001975 0.000419 -0.004842 -0.009266 -0.000745 -0.007372 0.002211 0.005392 -0.009406 -0.000512 -0.008172 -0.001367 0.000904 -0.005043 -0.002741 0.002622 0.000345 0.006303 0.003593 0.000089 0.002736 0.002868 0.000608 -0.003875 0.008373 0.003086 0.001047 -0.005703 0.003260 0.004383 -0.001236 -0.002621 0.003665 -0.004828 -0.000313 -0.000171 0.000729 0.000157 0.011974 0.003413 -0.005329 -0.002278 -0.002749 0.003426 0.003751 -0.002640 0.003818 -0.005056 0.010560 0.007304 0.004301 0.000685 -0.002619 0.004908 0.002864 0.001660 0.001457 0.003339 0.005892 -0.001377 0.002927 -0.009826 0.000053 -0.006896 0.000297 0.000695 0.006290 -0.002389 -0.000635 -0.011176 0.002649 0.008130 0.004460 -0.005617 0.003120 0.009166 0.011113 -0.002043 0.001222 -0.002379 -0.002817 0.008396 0.002344 -0.003986 -0.004609 -0.003235 0.004674 0.003008 -0.004169 -0.004086 -0.010366 0.002689 -0.008009 -0.003167 0.001091 -0.003674 -0.006811 -0.004919 -0.003429 -0.001615 -0.003082 -0.003373 -0.000368 -0.001302 -0.006671 0.003061 0.003363 -0.003002 -0.001844 0.008610 -0.005170 -0.005296 0.000544 -0.008312 -0.003755 -0.009349 0.000604 0.002017 0.005677 0.002200 -0.003748 0.001078 0.005112 0.001969 0.005821 0.000657 -0.002386 0.004915 0.006334 0.000183 0.000303 -0.004400 -0.009772 0.012728 0.004899 0.015222 0.000029 0.005433 0.013695 0.002123 0.007486 -0.012247 0.001179 0.022294 -0.018381 0.004063 -0.012118 0.006704 0.008143 0.032264 -0.002110 0.022575 -0.002252 0.012153 -0.003304 -0.036768 0.014519 0.000529 0.025229 -0.010731 -0.018771 -0.017852 -0.001291 -0.000145 0.005956 0.011200 -0.001996 -0.019340 0.005642 -0.001341 0.003939 -0.000333 -0.015792 -0.001205 -0.008205 -0.009745 -0.008260 0.007327 0.006493 -0.009286 0.033597 0.005062 0.009376 0.010320 -0.005061 -0.015075 0.017541 -0.004912 -0.006808 -0.003524 0.009296 -0.012608 0.015813 0.025495 0.000602 0.015406 0.002783 0.010369 0.006195 -0.025328 -0.008844 -0.027450 0.018931 0.001579 -0.003487 -0.015988 -0.014070 -0.008900 0.001402 -0.002488 0.016533 -0.007124 0.003593 -0.016963 0.000771 0.014201 0.017543 0.000741 0.009384 0.018051 0.001451 0.014422 0.005773 -0.046765 0.002508 0.004527 -0.007366 0.037945 -0.000339 -0.006993 -0.001516 0.026949 0.032322 0.005791 0.000430 -0.004013 -0.026949 0.018570 0.003349 0.011329 -0.006553 -0.002159 -0.010456 -0.016303 0.015510 -0.005740 0.014473 -0.020416 -0.016917 -0.002979 0.013710 0.024599 -0.001905 -0.013922 0.022882 0.010535 0.007034 0.012942 0.006575 0.016021 -0.010153 0.001144 -0.002080 0.003754 0.023793 -0.003509 -0.014475 0.006864 0.006157 0.011817 0.013312 0.001816 0.019255 -0.014121 0.012195 -0.027877 -0.041046 0.028008 0.001799 0.023931 -0.027425 -0.023284 0.001059 -0.005350 -0.005770 -0.014854 -0.012348 0.009102 -0.003103 -0.009912 0.012659 -0.001618 0.002127 -0.001664 -0.001231 -0.005344 -0.007362 0.006581 0.029090 0.026804 -0.003660 0.005936 -0.011821 -0.023304 -0.016544 0.001439 0.010046 0.010229 -0.000059 0.013078 -0.009798 0.001245 0.017658 0.006422 -0.002114 0.000439 0.011855 -0.004299 0.000498 0.006481 -0.005589 0.016558 0.005160 0.021052 0.001847 0.004222 -0.015816 -0.009115 -0.002156 0.001685 -0.001627 0.005064 0.014723 -0.002088 -0.008779 -0.024628 0.013012 0.016319 -0.000920 0.017864 -0.000924 0.000703 -0.000910 -0.001977 -0.011954 -0.003301 0.013215 0.005163 0.026817 -0.001213 -0.003638 0.003899 0.028377 0.049834 -0.003591 -0.009562 0.006163 -0.008046 0.013974 0.005579 0.030868 0.008008 0.006017 -0.003803 -0.004176 0.005098 -0.001221 -0.017935 -0.041367 0.017888 -0.001912 0.029158 0.019397 0.006894 0.019644 0.026925 0.022039 0.003004 -0.010570 0.005692 -0.030473 -0.003315 -0.006330 0.006309 -0.008552 0.017525 -0.013673 0.022098 -0.005152 -0.002761 0.007811 -0.020342 -0.006707 0.009597 0.027447 0.020237 0.038111 0.035093 -0.000683 -0.004654 0.022918 0.001654 0.001591 -0.019987 -0.002931 0.001530 0.015638 0.048239 -0.021817 0.014846 -0.013727 -0.004937 -0.012012 0.000618 0.010931 -0.025006 -0.005750 -0.004394 0.018842 -0.037690 -0.048128 -0.010899 -0.008559 0.018627 0.017344 -0.006106 -0.002735 0.001547 -0.015941 0.003624 0.014136 0.024579 0.024377 0.018013 0.001289 0.003227 -0.004175 -0.005729 0.011297 -0.015779 0.007938 0.040079 -0.005280 0.033073 0.020688 0.012005 0.002725 0.042486 0.055544 0.023220 0.000952 0.000320 0.009462 0.029982 -0.002885 0.022928 0.023612 0.010802 0.018795 0.016102 0.011804 0.045224 0.019585 -0.002708 0.013868 0.026034 -0.008367 -0.011682 -0.014243 0.008466 -0.000097 0.019787 0.000097 -0.021668 -0.025479 -0.011345 0.005861 -0.020124 0.084844 -0.005673 0.034284 0.000509 -0.005351 0.000969 0.009020 0.000940 -0.025722 -0.002172 0.008429 0.049511 -0.031534 0.003183 -0.033376 -0.017179 0.007941 0.011720 -0.006838 0.015696 0.001489 -0.014852 0.001524 0.006449 0.012184 -0.005747 -0.006527 0.006569 -0.000401 0.033960 0.018661 -0.007272 0.016287 -0.003283 0.021011 0.002185 -0.008995 0.003902 0.008490 0.002298 -0.000038 -0.010126 -0.010124 0.008701 0.029011 0.024822 -0.021688 -0.004863 0.005843 0.013197 0.034551 0.014464 -0.005053 0.011498 0.004318 0.006266 -0.003614 0.001727 0.017702 -0.007596 0.002554 -0.024984 -0.013383 0.021685 -0.000877 0.013511 -0.002854 0.021423 0.005183 -0.005732 -0.013586 0.010697 -0.007564 0.001449 -0.005708 0.007798 -0.021879 0.006403 0.032563 -0.002212 0.022372 -0.003037 -0.003410 0.001035 -0.006010 -0.026332 -0.021417 -0.021680 0.010214 -0.004728 -0.000007 -0.023870 -0.001966 0.000333 -0.000941 -0.000908 -0.038672 -0.008149 -0.020582 0.009409 -0.006793 -0.016211 -0.004730 0.003211 0.007084 0.023696 0.017505 0.009538 0.017296 0.000093 0.005271 -0.007902 0.019930 0.004051 -0.015524 0.000363 -0.025686 -0.018535 0.011945 -0.001614 -0.004529 -0.003249 0.010773 -0.017244 -0.025706 -0.003707 0.003751 -0.004070 0.005174 0.056803 -0.003542 0.020264 0.004522 -0.019641 0.003116 -0.022077 0.002942 0.001263 -0.006611 -0.000751 -0.005372 0.016624 0.003920 0.020654 -0.002940 -0.004301 0.009043 0.006536 0.002977 0.001022 -0.004874 0.008141 -0.014612 -0.010870 0.008673 0.009635 0.006391 0.004886 -0.004265 0.015317 -0.001497 -0.015415 0.016863 -0.000671 0.017357 0.002367 -0.031403 0.007107 -0.010060 -0.002905 -0.000073 -0.002092 0.000843 -0.014426 0.000545 -0.005573 -0.007914 -0.010966 -0.003837 -0.006740 0.000726 -0.003698 0.011221 0.014345 0.000560 0.000417 0.001993 -0.012616 0.017763 -0.005976 -0.000109 -0.012583 0.023328 0.008203 -0.003925 0.012574 0.009370 -0.006673 0.005051 0.037729 0.009112 0.015472 -0.007085 -0.004416 0.002439 -0.009497 -0.018149 -0.024594 0.020721 0.010346 -0.000700 -0.024456 0.006649 -0.004716 0.002137 -0.002947 0.025709 -0.006835 -0.011095 -0.001237 -0.009289 0.023714 0.023043 -0.005295 0.005132 0.000420 0.008823 -0.001756 0.006564 -0.034134 -0.006974 0.005929 0.001429 0.038055 -0.001083 -0.005831 0.003231 -0.001704 0.037023 0.001902 0.006711 -0.000069 -0.016577 0.021043 -0.007814 -0.004347 -0.000288 0.014541 -0.014373 -0.003505 -0.005251 -0.003923 0.003434 -0.014394 -0.014601 -0.000554 0.002753 0.005552 0.011699 -0.001471 0.015616 0.019262 -0.011433 0.000726 0.004709 -0.005695 -0.004144 -0.010561 0.006395 -0.002774 0.006878 -0.022606 0.005025 -0.005098 -0.005383 0.001647 -0.002910 0.002415 0.006766 0.003891 0.019146 0.000422 0.002458 0.001662 0.001078 0.006173 -0.019262 -0.012854 -0.019796 0.001833 -0.005496 0.004187 -0.005060 -0.000223 0.013212 -0.010341 -0.005625 0.002209 -0.005389 0.004551 -0.010613 0.001033 -0.005181 0.008380 0.003100 0.001259 -0.001041 -0.007423 0.008563 0.000241 -0.000336 0.009325 0.001623 0.002446 0.007230 -0.000594 0.014200 -0.000565 0.001472 0.010164 0.005118 -0.003596 -0.005430 0.004445 -0.010931 -0.005154 0.017964 -0.001158 0.004554 0.015175 -0.004892 -0.000763 0.009317 0.011906 0.009996 -0.003120 -0.004380 -0.001473 0.015449 0.004439 0.004650 -0.017217 0.012591 0.016242 0.004217 -0.002167 0.004219 -0.006828 -0.004035 0.003495 -0.004197 0.006298 -0.000891 0.004710 0.010172 -0.001377 0.004860 -0.003629 0.011778 0.014866 -0.008185 -0.009629 -0.014153 0.022076 0.009746 0.006481 0.018816 0.009039 0.011382 0.002070 -0.006518 -0.018391 -0.003046 -0.015651 -0.004622 -0.007282 0.002250 -0.002154 0.000395 -0.000840 -0.009235 0.010131 0.005431 0.007147 -0.017570 0.000586 -0.025485 0.010590 -0.013479 -0.031485 0.033254 0.038684 0.006477 0.006586 -0.009953 -0.020340 0.029335 0.015224 -0.009130 0.005496 -0.028950 0.022388 0.002606 -0.027426 0.004523 0.003399 0.022979 0.006570 -0.038414 -0.011240 -0.003290 -0.000610 0.003613 0.045414 -0.012558 -0.011282 -0.016376 0.028643 -0.004786 -0.010078 -0.009188 -0.025610 0.000845 -0.007050 0.013327 0.018579 -0.010974 -0.021304 -0.011812 -0.011147 -0.023995 -0.003642 -0.007412 0.013388 0.020742 -0.002196 0.038445 -0.005343 0.011824 0.020329 -0.023432 -0.000528 0.004284 0.003578 -0.011902 -0.019484 0.046698 0.006987 -0.002433 0.007749 0.009370 0.005446 0.020987 0.034537 0.018354 -0.022767 0.002140 -0.002810 -0.004376 0.012896 0.000083 0.031698 0.041278 -0.012388 0.031394 0.005026 0.044281 0.046684 0.028573 0.008409 0.060861 -0.005159 -0.002919 0.003480 0.004209 0.004832 0.008699 0.008487 0.006931 0.011425 -0.009207 -0.003735 0.001251 -0.012125 0.031478 -0.015088 0.018575 0.015023 -0.017818 -0.047309 0.009251 0.000463 -0.003538 -0.005568 0.022414 -0.030768 -0.020026 -0.011630 -0.027094 -0.000412 0.007565 -0.009211 0.027910 0.010496 -0.036962 -0.005540 0.000939 0.015775 0.005887 -0.019622 -0.005618 0.007255 0.020861 -0.022531 -0.002610 0.001508 -0.004319 -0.010527 -0.008969 -0.000220 0.015044 0.037428 -0.006544 0.019849 -0.011070 -0.017658 -0.005386 -0.009329 -0.033547 0.035815 -0.008022 0.005361 -0.000959 -0.005716 0.013014 -0.007816 0.010845 -0.019992 0.004511 -0.007495 0.002649 0.010457 -0.008340 -0.003736 0.001928 -0.001926 -0.020466 -0.016117 -0.017736 0.029951 0.005673 0.018565 0.004911 0.005683 0.001149 -0.024095 -0.004166 0.008320 -0.002303 -0.005303 -0.007464 0.019119 -0.005191 -0.007278 0.003993 -0.003191 -0.001434 -0.005194 0.004630 0.009301 0.008904 -0.003280 -0.030486 -0.005413 0.027696 0.015657 0.027195 -0.010841 0.001734 -0.031493 0.011659 -0.008058 -0.020114 0.019245 0.004724 0.004613 0.007926 -0.018609 -0.020912 -0.015796 -0.000280 0.015277 -0.006328 -0.003971 -0.000440 -0.015406 -0.017139 -0.009568 -0.017835 -0.005728 0.040848 0.004258 0.004969 0.003939 0.008739 0.015270 -0.015235 0.022149 0.024746 0.009663 -0.002472 0.014743 -0.003470 -0.008095 -0.001126 0.021175 0.013239 0.007581 0.008996 0.017856 0.029030 0.003615 -0.021162 0.066930 0.023289 0.002224 0.000693 0.017777 0.037806 -0.006322 -0.027443 -0.029190 0.001116 0.034794 -0.007548 -0.012876 -0.023615 0.023831 0.029270 0.040144 -0.005988 0.030955 -0.014134 0.028986 -0.016599 -0.036872 0.009218 0.003736 0.046827 -0.040508 0.012308 -0.030429 0.009959 -0.010187 0.003105 0.021770 0.005607 -0.002176 -0.005878 0.028187 -0.010495 0.005991 -0.005524 -0.007910 -0.001029 -0.003923 -0.046642 -0.000613 0.018662 -0.029067 0.022679 -0.009595 -0.013341 -0.001524 -0.008382 0.003084 0.025397 -0.008059 0.031893 -0.033102 0.013624 0.006431 0.004712 0.025185 -0.004243 0.017634 -0.009802 0.001869 0.011808 -0.008040 -0.004152 0.012393 0.001373 -0.023684 -0.001437 -0.007165 -0.036970 -0.016557 0.007159 0.000378 -0.041700 -0.011416 0.006750 -0.018562 0.010601 -0.015282 0.030524 -0.002293 0.038851 0.022962 0.011359 -0.000437 0.002164 -0.032689 0.005718 0.000421 0.002003 0.033114 -0.003936 -0.013641 -0.004948 0.022031 0.024960 0.011647 -0.015297 -0.003420 -0.002505 0.003560 0.014147 0.030332 0.008734 -0.018010 0.016122 -0.002899 0.050255 0.004631 -0.003713 -0.035515 0.009768 0.002729 0.006625 0.030924 0.000598 -0.002595 -0.008333 0.007835 -0.004388 -0.010509 0.000128 0.009263 -0.004427 -0.002582 -0.018478 0.007107 -0.000475 0.025342 0.003703 0.013029 0.007627 0.005717 0.006365 -0.000501 -0.002535 -0.010864 0.002557 -0.003141 -0.011472 -0.002775 0.001601 0.003364 0.019933 0.005193 0.006853 0.002467 0.010405 0.001128 -0.006376 0.007664 0.001246 0.005945 0.015224 0.004792 0.001710 -0.001053 0.013497 0.001375 -0.003988 -0.006888 0.017669 0.015325 0.002565 0.004887 -0.001959 0.003910 -0.000423 -0.007350 0.005924 0.004587 -0.001606 0.018247 -0.012046 -0.004200 0.012122 -0.002454 0.011847 0.003858 0.003473 0.007198 0.001794 0.009499 -0.013698 0.000731 0.002001 -0.007515 -0.004725 0.006394 0.002625 -0.009590 -0.005987 -0.001201 -0.002313 -0.007628 -0.013549 0.003016 0.007084 0.001602 -0.022824 -0.006867 -0.006902 0.008479 0.000652 -0.001267 -0.012520 0.016825 -0.001925 0.003384 0.001099 0.006336 -0.005732 0.002553 0.000109 0.002315 -0.011184 0.011593 0.005029 0.006983 0.007882 0.002248 -0.000018 -0.008088 0.003947 -0.008906 -0.010605 0.015645 0.008799 0.022114 -0.000240 0.014228 -0.012369 0.010641 0.002149 0.000033 -0.001863 -0.003357 0.000204 0.011064 0.004590 -0.002272 -0.009198 0.017760 0.006369 -0.014831 0.007553 0.006711 -0.004915 -0.001300 0.011251 -0.002432 -0.000650 0.002837 -0.016194 -0.001211 0.002249 -0.008567 0.002747 -0.008376 0.008711 0.005545 0.003130 0.006878 -0.003584 -0.001968 -0.004515 0.017610 0.005380 -0.004871 -0.001172 -0.011663 0.001187 -0.003636 0.005430 -0.002032 -0.001295 0.002795 0.010871 0.010863 -0.002703 -0.007839 0.010886 0.000828 0.017267 0.007321 0.007702 -0.001851 0.035445 0.004284 -0.011903 0.016665 -0.004256 0.000698 -0.006511 0.011569 -0.000270 -0.004902 0.015334 0.018342 -0.003314 0.005488 -0.009841 0.001515 -0.002409 0.004101 -0.000106 0.011265 -0.013529 -0.017704 -0.000805 -0.006042 -0.004616 0.022919 -0.000567 -0.006452 0.019711 0.002762 -0.000130 -0.000766 -0.004887 -0.000694 -0.000969 0.005087 -0.027630 -0.017507 -0.003740 -0.011211 0.001223 -0.014351 0.002387 -0.002130 -0.002440 0.000699 -0.003404 0.008382 -0.001333 0.002156 0.022754 0.003875 -0.001473 0.006554 -0.001332 -0.015775 -0.002607 -0.003907 -0.000692 -0.002219 0.001473 0.007490 0.015755 -0.002987 -0.008358 0.010174 -0.002212 0.003531 0.021575 0.004060 -0.004931 -0.005693 0.013082 0.004582 -0.003123 0.005644 0.006981 0.029550 -0.004329 0.019956 0.010756 -0.005631 -0.002699 0.017356 0.015279 -0.006397 0.014903 -0.006872 0.031331 0.003297 0.012337 0.005411 0.005530 0.011965 0.016656 -0.014940 -0.002978 0.014352 0.013112 0.026881 0.009675 -0.001818 -0.002703 0.002792 0.009510 0.023119 0.002113 0.029773 0.011100 -0.001892 0.006775 -0.005109 0.001825 0.004167 0.007500 -0.016754 -0.001779 0.009209 -0.001930 0.037824 0.006256 0.033868 -0.001702 0.009065 -0.007185 0.001097 0.003623 0.011060 -0.004805 0.000298 -0.038480 0.009462 0.037600 -0.002916 0.018810 -0.004979 -0.002386 -0.019269 -0.009085 -0.006200 -0.001256 -0.025865 0.006527 -0.007560 -0.025896 -0.057206 0.007192 -0.003302 -0.004175 0.013669 -0.016806 -0.005111 -0.040822 -0.013335 -0.008158 -0.009435 -0.006071 -0.028143 -0.009801 -0.007507 0.001750 -0.006313 -0.004305 -0.007145 0.017588 0.014665 0.007957 0.004388 0.000757 -0.000111 0.018687 0.014101 0.010726 -0.011828 -0.005082 -0.025730 -0.017338 0.001307 0.002108 -0.019992 -0.002623 -0.005071 0.010859 0.056327 -0.001945 0.005774 0.017082 0.011239 0.010242 0.008689 0.022294 0.007504 -0.003539 0.046016 0.010587 -0.019486 -0.006405 -0.003627 0.017443 -0.013936 -0.014546 0.006875 -0.000481 0.015147 0.000009 0.007743 -0.013217 0.000310 -0.021595 0.002623 -0.000430 0.012190 0.017202 -0.002393 0.026442 0.025946 -0.006413 -0.003543 0.020016 -0.023172 0.031272 0.006235 -0.004855 -0.002922 0.000481 0.023546 -0.000283 0.017003 0.005238 0.022087 -0.013742 0.001870 0.000295 -0.012451 -0.002715 0.006859 -0.006028 -0.038791 -0.010968 -0.020510 0.027488 0.004101 0.038420 0.004859 -0.002221 0.026136 -0.008600 0.004013 0.018269 0.007453 0.007746 -0.001169 0.009491 0.017714 -0.000653 0.013566 -0.000710 0.005763 -0.002210 0.026720 -0.002801 0.023170 -0.040302 -0.007098 -0.003772 0.022697 -0.018542 0.027632 -0.006062 0.005572 -0.019031 0.021348 -0.004565 -0.001686 0.007895 -0.010699 0.007389 0.001944 -0.006878 0.013079 0.007223 -0.009339 0.006011 0.013109 -0.006694 0.019652 -0.009753 -0.020302 -0.012444 0.008909 0.000707 0.003140 -0.007215 -0.016931 -0.007318 0.003266 0.032229 -0.028350 0.020376 0.022227 -0.013226 -0.006799 0.015094 0.016287 0.006774 0.000922 -0.000381 0.044263 0.004943 -0.006915 0.005629 -0.004464 -0.000433 -0.008176 -0.010782 -0.004167 0.002251 -0.007443 -0.005146 -0.000368 0.000778 0.001242 0.001343 0.001843 -0.001501 0.000345 -0.001837 0.009304 -0.001766 -0.003667 0.002524 0.001431 0.005257 -0.007222 -0.005682 -0.000114 0.001471 -0.004753 -0.003466 -0.003251 -0.002834 -0.007479 -0.011143 -0.005645 -0.009600 -0.000179 0.004956 0.006287 -0.000609 0.003726 0.003789 -0.002111 -0.002838 -0.002307 -0.002266 0.003140 -0.006200 0.000177 0.007553 0.004201 -0.000013 -0.000205 -0.004649 -0.005779 0.000772 0.001777 -0.001859 -0.003720 0.001654 -0.000032 -0.008482 0.000285 0.004248 -0.007385 0.000626 -0.003831 0.000693 -0.001329 -0.004697 -0.001278 0.006255 0.002031 -0.003068 -0.001341 0.003320 -0.006611 0.000888 0.001832 0.009157 -0.000738 0.002044 0.003200 0.002604 0.003878 -0.006635 -0.000613 -0.004734 -0.003086 0.005799 -0.009250 -0.000744 0.004309 -0.008205 -0.010295 -0.000023 0.000524 0.000832 0.000557 -0.004513 0.001611 -0.009129 -0.002011 0.000522 0.005734 -0.002188 0.000980 0.002341 -0.001994 0.006446 0.005178 0.002100 -0.008807 0.007170 0.005904 0.003405 0.004660 0.010645 -0.001495 0.003808 -0.005058 -0.002032 0.002294 -0.000634 -0.001581 0.017150 -0.007155 -0.010364 0.019714 -0.016175 0.018341 -0.006626 0.004243 0.005732 -0.006162 0.001102 -0.013943 0.053061 0.029106 -0.020532 -0.026894 -0.002241 0.003209 -0.001491 -0.005215 -0.014732 -0.008150 0.007101 0.014127 0.003445 -0.001030 0.016228 0.041883 -0.013630 0.000619 -0.012060 0.011825 0.008270 0.029188 0.016137 -0.010986 0.003369 0.046755 -0.013989 0.000142 -0.021027 0.005328 -0.007802 0.021989 -0.011210 0.014399 -0.002813 0.016719 -0.037472 0.010417 0.033043 -0.014970 0.004464 0.001244 0.024417 0.011334 0.024553 0.015426 0.007742 0.000831 -0.002017 0.037432 -0.000693 0.017271 0.009749 -0.010838 0.029972 0.012329 -0.020363 -0.010980 -0.020536 0.054620 0.020811 -0.004716 -0.030645 0.001487 0.000361 -0.007276 0.032230 -0.024006 0.005609 0.009372 -0.004511 -0.000507 -0.006684 -0.006308 0.005579 0.024107 0.038438 0.007461 0.018708 -0.002675 0.000842 0.025747 0.001740 0.007916 0.004008 0.022947 0.005228 -0.054561 0.003135 -0.008922 0.001055 -0.007897 0.027251 -0.018775 -0.010825 -0.032602 -0.031341 -0.043666 -0.022052 -0.000176 -0.004751 0.006954 0.003200 0.046229 -0.006782 -0.001078 -0.021580 -0.024216 0.001738 -0.000997 -0.004955 -0.000651 0.003496 0.010755 0.004988 0.007629 0.002093 -0.011375 0.005781 -0.009018 -0.006795 0.011737 -0.002207 0.009374 0.014606 -0.001535 -0.005913 -0.000779 -0.020165 0.000949 -0.009852 -0.008526 -0.013586 0.008822 -0.003343 0.000524 0.016621 0.002565 0.006759 0.002919 0.004814 -0.006184 -0.013720 0.006327 0.004925 -0.005496 -0.007504 0.006190 0.008975 0.003876 0.018447 -0.005515 0.005484 0.005193 0.018884 0.017254 0.005467 -0.004969 0.000747 0.011220 -0.003121 -0.001200 0.010737 0.002356 0.006402 0.007189 -0.002140 -0.002219 0.026898 0.001945 0.003209 0.000468 0.000030 0.000596 0.003682 0.012782 -0.009370 0.001736 0.006516 0.005708 0.006422 0.014053 0.007138 0.016428 0.007105 0.004058 -0.003966 -0.002754 0.011216 0.005309 0.014854 0.010275 -0.006624 -0.004412 -0.002123 0.007018 -0.003499 0.005384 -0.001627 -0.003368 0.015691 -0.002011 -0.001262 0.001101 0.007636 0.003245 0.001371 -0.005283 -0.009764 0.018818 0.009315 0.003259 -0.002150 0.007932 0.011940 -0.012350 0.000946 0.006560 0.001180 0.004009 0.003336 0.002859 -0.000335 -0.004337 -0.002038 0.017453 -0.007137 0.018999 -0.004873 0.004403 0.006562 0.030234 0.041324 -0.005597 0.002946 0.000369 0.026677 0.014049 -0.008576 -0.025291 0.000976 0.026180 -0.005897 -0.019007 -0.013911 0.032640 0.037198 0.020680 -0.004759 0.009729 0.002277 0.024074 -0.004887 -0.029765 0.002867 0.010441 0.037400 -0.017606 0.022673 -0.028921 0.013545 -0.010914 0.018713 0.018869 0.017618 0.000003 -0.007605 0.008351 0.013539 -0.002964 0.014087 0.013084 0.008454 -0.007701 -0.028131 -0.011928 0.018170 -0.023183 0.020756 -0.008842 -0.023235 -0.007535 -0.010305 -0.021013 0.009457 0.008138 0.008031 -0.035780 0.020673 0.009397 -0.001676 -0.011290 0.003709 0.018631 -0.015502 0.005230 0.006962 -0.020115 0.001683 0.020777 0.024413 -0.032136 0.002880 0.014575 0.020975 -0.018579 -0.001945 0.005299 -0.030194 -0.016234 0.002201 -0.015110 0.029978 -0.017687 0.020335 0.013472 0.036648 0.036385 0.014651 0.003535 -0.018359 0.010875 -0.010205 -0.028185 -0.007890 0.050098 0.003325 -0.013583 0.002126 0.011149 -0.000635 0.011089 -0.002253 0.009743 -0.002327 0.036143 -0.007376 0.022474 0.016050 0.003965 0.014740 0.001344 0.068597 0.006713 0.013699 -0.034169 -0.006084 0.000443 0.004969 0.026542 0.005352 0.005456 0.005480 -0.001516 -0.004592 -0.007006 0.004390 -0.004202 -0.000654 -0.000622 0.001808 -0.001366 -0.007548 -0.006496 0.000828 -0.002436 -0.001170 -0.005664 -0.004958 -0.000302 -0.004844 -0.002891 -0.007363 0.002367 0.003719 0.003437 -0.000617 -0.002921 -0.011623 -0.000409 -0.002903 0.017093 -0.000895 0.002508 0.006432 0.005941 0.006444 0.001672 -0.004755 -0.004590 -0.003916 0.004733 -0.001669 0.010902 -0.001171 -0.000546 0.004539 -0.001777 -0.002705 0.003816 0.001795 -0.002504 -0.001639 0.010487 -0.002341 -0.001645 0.002477 0.000692 -0.004256 -0.012321 0.000421 -0.002515 -0.000089 0.008687 -0.007845 -0.008492 0.004285 -0.006464 -0.006493 -0.005068 -0.002803 0.004658 0.003432 -0.003722 -0.007020 -0.001175 0.000713 -0.007647 -0.002120 -0.000761 -0.002821 0.007560 0.005213 -0.003474 -0.005030 -0.010679 -0.001419 -0.012326 -0.003138 0.004630 0.002172 -0.005436 0.001656 0.006889 0.002704 -0.005666 -0.001172 0.001036 -0.001703 -0.005988 -0.007174 -0.005121 -0.003858 -0.002487 -0.013785 -0.010106 -0.002203 0.003406 0.005788 -0.004335 0.000920 -0.003418 0.003334 0.003163 0.000927 -0.004474 0.003556 0.001363 0.000679 -0.004202 0.005794 -0.001699 -0.004848 -0.002827 0.008642 -0.004240 0.017620 -0.008811 -0.013096 0.003474 0.008678 0.000823 0.000986 0.023034 -0.019712 -0.006622 0.021026 -0.020264 0.014365 -0.001068 0.002258 0.004875 -0.011907 0.002122 -0.003984 -0.003687 0.020974 -0.004058 0.007505 -0.004977 -0.025464 0.020461 -0.003767 -0.012245 -0.010754 0.006347 -0.010319 -0.003740 -0.007740 -0.001467 0.008287 -0.001717 0.014996 -0.023476 -0.006739 -0.012200 0.035733 0.026984 0.001269 0.007128 0.008791 -0.008737 -0.016642 0.004370 0.001828 0.013794 -0.005598 0.001258 0.001407 0.022180 -0.001643 0.016512 0.012991 -0.018434 -0.012993 -0.016450 -0.003137 -0.005378 0.008812 -0.002376 0.031525 0.013920 0.020779 0.005322 0.005036 0.012917 0.009316 0.008946 -0.003151 -0.003219 0.010345 0.023170 -0.001824 0.020500 -0.008402 0.011812 0.020761 -0.000697 0.001080 -0.004789 -0.022408 -0.011687 0.024643 -0.005100 -0.000833 0.003065 -0.001278 -0.005665 0.003570 0.012893 0.000606 0.043581 0.034018 -0.010406 0.006162 0.002730 0.006289 -0.001211 0.012124 0.035662 0.001329 0.005995 -0.000381 -0.014549 -0.035355 0.011227 -0.012479 -0.026540 0.027374 -0.001288 0.005041 0.001917 -0.005678 0.010208 0.022841 0.017631 -0.008299 -0.009620 0.012959 0.012867 0.001567 0.010309 0.009033 -0.012121 0.005570 -0.017485 0.009468 -0.027757 0.006921 -0.008304 0.021989 0.000751 0.017442 0.031752 0.022064 0.019172 0.031548 -0.001355 -0.001831 0.033326 -0.003601 0.026585 -0.003301 0.006845 0.002328 0.015783 0.021142 0.019991 0.006746 0.037708 0.000837 0.001281 -0.005543 -0.003807 0.008416 -0.007026 0.002784 -0.019109 -0.024530 -0.012551 -0.002228 0.037481 0.009957 0.032465 0.008794 -0.000777 -0.020736 0.003961 0.007660 -0.007540 0.003496 0.013379 -0.035003 0.019381 0.045614 0.000522 0.026623 0.002350 0.005709 -0.022207 0.013960 -0.019798 0.000580 0.008180 -0.007703 0.003672 -0.006934 -0.007603 0.031362 0.001252 -0.004792 0.006870 -0.002012 0.006189 -0.025923 -0.019201 0.005321 0.000248 0.008092 -0.011834 0.012128 -0.007194 0.008861 -0.019918 -0.006952 -0.002713 0.004585 0.005750 0.031396 -0.003930 -0.000150 -0.000272 0.002905 0.002840 0.006946 -0.017547 -0.009899 0.007241 0.006035 0.015020 0.013548 0.007094 0.025924 -0.006155 0.006564 0.025865 -0.006126 -0.003574 0.041415 -0.027658 0.003367 0.004077 0.011722 0.008015 -0.019978 0.007329 -0.005490 -0.006703 0.007998 -0.000808 -0.001713 -0.007724 0.000458 0.018010 -0.000484 -0.004790 -0.003927 0.006930 0.008406 -0.004137 -0.031418 -0.005459 -0.002956 -0.009398 0.016376 -0.000236 0.010828 0.021739 0.012622 -0.004204 0.011353 -0.012949 0.012360 0.033167 0.000734 -0.001417 -0.009268 -0.013954 0.004268 -0.001698 0.011425 -0.005297 0.003587 -0.004739 0.003648 -0.006859 -0.000299 -0.000637 0.037867 0.006903 0.011258 -0.005302 0.013010 0.000518 0.030695 0.000014 0.003437 0.024222 -0.007455 -0.006289 0.000464 0.033791 -0.015220 -0.000524 0.023421 0.027856 0.007363 0.015595 -0.002826 -0.001679 -0.002417 0.010759 0.001927 -0.007057 0.000829 -0.003121 -0.007715 0.003770 -0.017951 0.029954 -0.001871 0.006849 0.014730 0.027221 0.002807 0.010241 -0.007955 0.007172 0.001442 -0.002891 -0.030248 -0.031672 -0.022129 -0.011609 0.015440 -0.008439 0.009394 0.029874 -0.005102 0.005298 -0.002832 -0.000377 -0.009572 0.020154 0.034055 -0.004804 -0.006996 0.002978 0.002944 -0.015403 0.010016 0.015474 -0.007886 -0.000593 -0.008491 0.004788 -0.006005 -0.006486 -0.013683 0.016867 0.014683 -0.002658 0.039877 0.004278 0.011858 0.006909 -0.017535 0.012332 0.004027 0.009185 0.006739 -0.022236 0.020414 0.013389 -0.020742 0.014538 0.000395 0.032065 0.002282 0.013242 0.010090 0.032531 -0.002317 -0.002003 -0.028867 -0.029347 -0.001234 -0.019412 -0.018779 0.007707 0.003222 0.011324 0.056815 -0.026731 0.009145 0.006755 0.003177 0.011868 0.017044 0.004046 -0.004864 -0.008697 0.030577 0.009041 -0.001496 -0.007220 0.018474 0.000017 -0.013975 0.018300 0.031960 0.019203 0.011592 -0.019092 -0.003397 -0.001391 0.014804 0.004563 -0.012250 0.000210 -0.003866 0.031504 -0.007461 0.008790 0.023951 0.004593 0.005586 -0.005885 0.004786 -0.002021 0.003454 0.033803 -0.019887 0.008260 0.004085 0.006770 0.002619 0.031512 0.013545 0.033576 -0.018659 0.010899 0.000485 0.007174 -0.003172 -0.006458 0.041247 0.031144 -0.033097 -0.007988 0.006363 0.036741 0.011004 0.017673 0.004230 0.023712 0.019065 0.002065 -0.021694 0.010581 0.001995 -0.010241 0.008213 0.014018 -0.011183 -0.005321 0.003006 0.010997 0.007906 -0.003868 0.028781 -0.010095 -0.015609 -0.010317 -0.016672 0.009952 0.008712 0.026792 0.005226 0.025050 -0.022530 -0.018924 0.002245 -0.013244 0.004365 0.000774 0.014893 0.002819 0.013556 0.004995 -0.013450 0.002710 0.014804 0.004009 0.001330 -0.004394 0.003772 0.008464 0.014574 0.014570 -0.001492 0.009066 -0.005194 0.015222 0.000535 0.001427 0.009515 0.016539 0.006066 0.003770 -0.007405 -0.000270 0.010225 0.025918 0.030826 -0.022921 -0.000780 -0.004616 0.021354 0.037668 0.010751 -0.002396 0.015246 0.004815 -0.000017 0.000830 0.012920 0.020057 0.004981 0.010282 -0.041810 -0.013767 0.006575 -0.001777 0.020963 -0.009892 0.022784 0.000484 -0.004800 -0.021869 0.021017 0.001397 0.001381 -0.036161 0.015444 -0.034657 0.007879 0.029229 -0.000899 0.029453 0.004816 -0.000506 -0.015220 -0.019973 -0.027517 -0.016523 -0.023198 0.001789 -0.013028 -0.002454 -0.039351 0.000749 -0.003516 -0.004434 -0.021977 -0.040894 0.002201 -0.038023 -0.003562 -0.013631 -0.016751 -0.002208 0.003253 0.007809 0.031126 0.007295 -0.013534 0.016571 -0.003762 0.004844 -0.003810 0.028410 -0.001331 -0.007412 0.001861 -0.017697 -0.017371 0.009744 -0.008003 -0.010519 -0.014064 0.013212 -0.013816 -0.024817 0.000456 -0.002282 0.004832 0.006060 0.058878 0.002367 0.017393 0.013560 -0.016528 -0.005289 -0.018268 0.011124 -0.002996 -0.005026 0.017766 0.022129 -0.018194 -0.002775 -0.004095 0.016677 0.004536 -0.019760 -0.026388 0.011792 0.030227 -0.014912 -0.003789 -0.016057 0.008358 0.007803 0.021642 0.001755 0.028640 0.016570 0.013764 0.007149 -0.010916 -0.024480 -0.000390 -0.000788 -0.009899 0.027883 -0.018051 0.012593 -0.006470 0.020000 0.018940 -0.008022 0.008586 -0.005316 0.005052 -0.005572 0.005787 -0.000009 -0.018164 0.007457 -0.011980 -0.029089 -0.040589 -0.030912 -0.030140 0.026140 -0.005830 0.008826 0.017962 -0.004368 -0.013066 -0.010741 0.001121 0.012852 -0.008916 -0.003452 -0.016749 -0.004067 0.007972 -0.004483 0.012251 -0.008698 0.007400 0.002247 -0.008099 -0.013098 -0.000615 -0.000950 -0.038496 -0.004432 0.015730 0.011511 -0.009279 0.003664 -0.001610 -0.039593 -0.009352 -0.002124 -0.009447 0.026136 -0.004500 0.012530 0.002307 0.022219 0.019969 0.007054 0.005040 0.010054 -0.008988 0.005500 -0.007953 -0.010836 0.006755 -0.000957 -0.028018 0.000718 0.012797 -0.032663 0.001778 -0.010132 -0.000810 -0.001335 0.000572 0.021197 0.013950 -0.009888 -0.007123 0.006841 0.003873 0.012831 0.003254 0.032563 0.003315 -0.019365 -0.006999 -0.018430 0.013944 -0.007243 -0.010012 -0.015855 0.011262 -0.004008 0.002394 -0.014844 -0.048749 0.018621 0.003569 0.002057 0.005585 0.032714 -0.032849 0.014369 0.012366 -0.016104 0.035624 -0.013368 -0.001053 0.006228 -0.015279 0.026541 -0.005096 0.002045 0.008937 -0.006463 0.025350 -0.010018 -0.044034 -0.037289 0.001714 -0.001997 -0.001383 0.025112 -0.024987 -0.004164 -0.039106 0.008818 -0.000812 0.009651 -0.012820 -0.048413 0.013039 -0.015421 0.051337 0.009176 -0.029171 0.011916 -0.018414 -0.000850 -0.017898 -0.009697 0.003939 -0.003938 0.021225 -0.009499 0.006864 0.038194 0.013912 0.029446 0.002354 -0.024200 -0.006071 -0.015104 0.014187 -0.013544 0.040979 0.027483 0.017916 0.017722 0.034769 0.026100 0.008519 0.045162 0.032981 -0.001967 0.003726 0.000887 0.017919 0.035328 0.005337 0.043589 0.006816 0.021932 0.043826 -0.003023 0.040926 0.048910 0.018809 0.007181 0.042033 0.014094 0.005589 0.002470 -0.010159 0.009310 0.005116 0.016627 -0.001476 0.005720 0.003643 -0.005013 0.013101 -0.031643 0.040972 -0.001398 0.033614 0.025121 0.009251 -0.006566 -0.005787 -0.019034 -0.033034 0.000619 -0.002693 -0.026588 -0.008296 -0.005669 -0.017362 0.007151 0.004492 0.007205 0.001147 0.001519 0.008685 0.001560 0.001907 0.002467 0.002908 0.000437 -0.002294 0.009469 -0.007717 0.006501 -0.000312 0.002996 0.003943 -0.003111 -0.000539 0.001386 0.002959 -0.002143 -0.008209 -0.011952 -0.008921 0.000067 0.001417 -0.008470 -0.001010 -0.009755 0.003328 -0.012692 0.003427 -0.008641 -0.008486 -0.006792 -0.001768 -0.000259 0.006719 -0.001846 -0.006349 0.001283 0.004785 0.005369 0.007837 -0.006909 -0.003162 -0.009717 -0.000362 -0.003582 -0.009106 -0.007098 -0.002293 0.002828 -0.005533 -0.007220 0.002424 -0.001414 -0.000595 0.003887 0.002520 0.003010 0.015641 0.001178 0.001980 -0.011185 0.000712 0.001128 0.005743 0.003025 0.001420 0.013608 0.000640 0.007130 0.004214 -0.007360 0.001937 0.002925 0.003396 -0.006411 -0.000142 -0.005500 0.005525 0.002272 -0.000566 0.001494 0.001499 0.004985 -0.001917 -0.008250 -0.000887 -0.005614 0.001742 -0.002298 0.004714 0.005606 -0.005661 0.003912 -0.000641 0.005490 -0.001029 0.004400 -0.003487 -0.003097 0.007921 -0.002600 0.010697 0.004879 0.002967 0.000423 0.010708 0.003551 -0.006131 -0.000018 -0.001849 -0.008627 0.006097 -0.000901 -0.005277 -0.007361 -0.008542 -0.002541 0.014517 0.021495 0.018132 0.014487 -0.001530 0.003113 -0.024031 0.012608 0.007357 -0.007374 0.006596 0.017092 -0.006565 -0.000330 -0.025055 -0.002333 0.026477 -0.004912 -0.002893 0.014136 0.008206 0.033003 0.013536 0.013678 0.001070 0.003173 0.025224 0.003727 -0.008561 0.013580 0.006076 0.000112 0.005662 0.039418 -0.001689 -0.002544 0.003201 -0.009733 -0.010875 0.000326 0.002346 -0.011410 -0.004052 -0.016185 0.004679 -0.025054 -0.038056 0.001927 -0.004820 0.007369 -0.010616 0.008427 0.006850 -0.000728 -0.006328 0.006726 -0.007446 -0.006295 0.012960 0.000470 -0.004534 -0.005146 -0.000317 0.005893 -0.000347 -0.013696 0.010315 0.010297 0.003961 0.020948 0.026858 0.004954 -0.003992 0.023043 0.044115 -0.015520 -0.001765 0.007552 0.000984 0.015369 -0.004515 0.005906 0.038268 0.000048 0.012334 0.004224 0.010581 0.047449 0.015994 0.025068 0.000025 0.011888 0.000735 -0.022948 0.005850 0.011379 -0.005949 0.005344 0.002515 -0.017996 -0.032214 -0.002296 0.014056 -0.013603 0.028279 0.002644 0.020149 0.006451 -0.003376 -0.003179 0.010796 0.000547 0.005970 0.013531 0.020522 0.010266 -0.033533 -0.005708 -0.028821 0.000442 -0.005784 -0.017079 0.040330 -0.010136 -0.008834 0.012146 0.015885 0.042396 -0.012659 0.014052 0.021324 0.000505 -0.005379 0.037154 -0.003567 0.008753 -0.004769 -0.035810 0.016469 -0.001418 0.014612 0.006743 -0.013649 -0.000027 0.016083 -0.003891 -0.008636 -0.003423 -0.012892 0.005507 0.065987 -0.008192 0.001518 -0.005204 -0.030900 0.003752 0.003231 0.024659 0.002151 -0.003422 0.002100 0.007434 0.005027 0.003586 0.004660 0.018413 0.023553 0.037298 0.003323 0.035482 0.001455 0.053154 0.005146 0.005542 0.032188 -0.010190 -0.002583 0.031792 0.017441 -0.011474 -0.011249 0.017432 0.035429 0.000265 0.007781 -0.006810 -0.010498 -0.006604 -0.006625 0.013954 0.002444 -0.034833 -0.022826 -0.003127 -0.009043 -0.048805 0.025297 0.001570 0.005348 0.022040 0.017172 -0.002801 -0.020476 -0.011504 -0.002206 -0.015592 -0.004135 -0.045483 -0.054409 -0.012402 -0.019438 -0.010465 -0.021071 0.001096 0.025082 0.011072 -0.014573 -0.003814 0.014767 -0.012072 0.026367 0.042302 -0.007282 -0.003554 0.028429 -0.011246 -0.016222 0.002560 0.021151 -0.015158 0.000720 0.011707 0.024465 0.021422 -0.003819 -0.003565 0.017989 0.045801 0.002877 0.043733 0.005117 0.007301 -0.025417 0.000257 0.003266 -0.026394 0.010354 -0.005464 0.001895 -0.004004 -0.002849 0.008237 0.003534 0.017643 -0.011959 -0.002543 0.008871 -0.005880 -0.014646 0.011731 -0.004333 -0.000840 0.008148 -0.001152 -0.004215 0.005164 0.005776 -0.000256 0.011621 -0.016650 0.004769 0.009322 -0.003056 0.006976 -0.013715 -0.012919 -0.003979 -0.002793 -0.010886 -0.004835 0.002278 -0.007389 0.007148 -0.005132 0.008531 -0.001595 0.016087 0.004887 0.019801 0.001893 0.009301 0.001140 0.013283 -0.006299 -0.007199 0.007330 -0.011423 0.004333 0.002970 0.017935 -0.006190 0.011384 0.012224 0.006594 0.001183 0.001546 -0.005152 0.000718 -0.007781 0.002625 -0.001527 -0.000141 -0.000265 -0.008165 -0.002973 0.005718 0.004822 0.011194 0.003223 0.000167 0.007880 0.020112 -0.007180 0.014174 0.003041 0.011025 0.007117 -0.005880 -0.012647 -0.025378 -0.016180 -0.014924 0.000228 -0.003255 0.005273 -0.007277 0.001882 -0.001685 0.005290 -0.007187 -0.007731 0.034969 0.028782 0.001903 -0.003307 0.010779 0.000229 -0.002559 0.004418 0.027070 0.001631 0.009044 0.001744 -0.004508 -0.003050 0.000471 -0.004852 -0.005308 0.017612 0.002823 0.031826 0.023307 -0.006421 0.009829 0.011028 0.008607 0.002521 -0.005248 0.018170 -0.002230 -0.006540 -0.015339 0.020145 -0.009324 -0.007890 -0.024821 0.005629 -0.012543 -0.002697 -0.004138 -0.010377 0.004704 -0.016000 0.041372 0.008331 0.036276 0.008070 -0.008042 -0.002462 -0.005320 -0.009133 0.017296 -0.000240 -0.001707 0.001248 0.004872 0.012337 0.005006 -0.016862 -0.016328 -0.007432 -0.003714 0.004383 -0.004126 0.007520 -0.000945 0.001049 0.018806 -0.004563 -0.031127 0.005507 -0.015337 -0.000646 0.034574 0.009497 0.002919 -0.008760 -0.014674 0.003909 -0.023285 0.019116 0.015572 0.005574 0.020513 0.020932 0.001490 0.014071 -0.008819 -0.008227 -0.002175 0.012125 -0.019226 -0.005624 0.030212 -0.005248 -0.008055 0.001036 0.062824 0.039458 0.006157 -0.007780 0.023683 0.008480 0.004145 0.014928 0.013273 0.039044 0.001584 0.014866 -0.016274 0.018479 0.011062 0.008019 -0.010708 -0.013633 -0.001186 0.002434 -0.013591 0.013582 -0.006717 0.004945 0.002366 0.006311 0.011996 -0.002563 0.017924 -0.005186 0.034024 0.018698 0.008920 0.003243 0.003946 0.023532 -0.008346 -0.001358 -0.020448 -0.000738 0.012564 0.029000 -0.020882 0.006875 0.015978 0.001458 0.005718 -0.013373 0.022520 0.029972 -0.000590 0.008940 0.012616 0.002031 0.001149 -0.009917 -0.020125 0.008965 0.018561 -0.021250 -0.014731 -0.017929 0.019429 0.029870 0.037950 -0.003356 0.017280 -0.020573 0.033783 -0.023397 -0.047430 0.016934 -0.005044 0.042634 -0.035521 -0.025633 -0.030452 0.004863 -0.001338 0.004763 0.020262 -0.003301 -0.008774 0.001283 0.001103 0.004053 0.002683 0.000334 -0.001018 -0.002788 -0.019029 -0.010443 0.025018 0.021171 -0.017995 0.016548 0.001949 -0.015704 -0.000902 0.003129 -0.013637 0.020463 0.005128 0.008926 -0.016896 0.025567 0.010333 -0.000366 0.001045 -0.006864 0.015668 -0.016685 -0.007376 0.015549 -0.021650 -0.004667 0.001583 0.039226 -0.024360 -0.005056 -0.011332 0.013111 -0.025430 -0.000302 -0.010327 -0.005217 -0.008202 -0.002062 -0.004626 0.005223 0.003159 0.026935 0.001267 0.031683 0.021528 0.011422 0.005952 -0.002404 -0.037540 -0.003729 -0.011831 -0.011929 0.044751 -0.008868 -0.015577 -0.003633 0.032777 0.044320 0.003873 -0.008327 -0.009811 -0.020146 0.022720 0.008171 0.021840 0.011717 -0.006619 0.003044 -0.020536 0.022889 -0.001668 0.017282 -0.058380 -0.007469 0.004320 0.021148 0.039760 -0.006934 0.000299 0.020652 -0.005990 0.014744 -0.019029 0.010720 -0.009477 -0.006909 -0.021767 -0.002884 0.002566 0.011359 -0.002009 0.028586 -0.014048 -0.022330 -0.009807 -0.002634 -0.003520 0.004637 -0.003387 0.002995 0.011306 0.019407 -0.014177 0.000442 0.015259 -0.011269 -0.009598 -0.015702 -0.006899 0.006728 -0.004157 0.020555 -0.008319 -0.008960 -0.005445 0.008857 -0.011757 -0.000280 -0.002367 -0.016586 -0.004658 -0.002348 0.004646 -0.016145 -0.013018 0.001840 -0.012843 0.004584 0.020586 0.007925 -0.002812 0.006381 0.027256 -0.003704 0.029817 0.028641 0.012566 0.009060 0.007855 0.028717 -0.012806 0.013316 0.002085 -0.005319 0.022957 0.024359 -0.029151 0.001975 -0.001128 0.017615 0.003374 0.009407 -0.006108 0.010092 0.002086 -0.005207 0.011927 0.010362 0.010902 0.002558 0.001423 0.012380 0.019366 0.009278 0.002115 0.017716 0.028154 -0.008550 0.027419 -0.031284 0.000736 0.022760 -0.003031 0.006309 0.012620 0.015574 -0.004619 -0.028507 0.006848 -0.013027 0.003751 -0.013283 0.023298 -0.016882 0.021467 -0.008516 -0.012555 -0.031461 -0.013854 -0.005003 -0.005209 -0.002105 0.008307 0.015856 -0.008914 -0.006225 -0.018081 -0.009983 -0.002616 0.006615 -0.028019 0.008318 0.004629 0.022850 0.005523 -0.002184 -0.003285 0.039410 -0.001187 -0.005088 -0.008762 0.057891 -0.011145 0.026604 -0.001899 -0.007307 0.008128 0.002817 0.003095 -0.011525 -0.014681 -0.024937 0.001853 0.019901 -0.006594 0.008840 0.039305 -0.000357 0.020799 -0.001338 0.007373 -0.003511 -0.020949 0.016084 0.002349 0.013877 0.033473 0.014538 -0.000617 -0.006118 0.010404 -0.005236 0.011074 0.003733 0.042361 0.039344 0.013287 0.001830 0.003882 -0.008294 0.006583 0.005418 0.005885 0.003196 -0.008323 0.023915 -0.000283 -0.005630 0.013306 -0.002864 -0.001097 0.001581 -0.002733 0.013945 0.003630 0.009455 -0.007409 0.023349 0.006546 -0.021217 0.028252 0.012539 0.003579 -0.029163 -0.010464 0.004121 0.009736 0.010882 0.012174 0.003070 0.016540 -0.020501 -0.010746 -0.022393 -0.012636 0.010015 -0.021833 -0.014617 -0.002920 0.025634 0.011968 0.000638 0.025788 0.000206 -0.010398 0.009969 0.022329 0.002495 -0.011631 0.014211 0.004928 -0.000359 0.017778 -0.009219 0.006422 -0.017533 -0.002699 0.009152 0.010213 -0.009326 0.000642 -0.003750 -0.008463 -0.023935 -0.013467 0.050135 -0.000692 0.003815 -0.005046 -0.000397 -0.010646 -0.008395 -0.010341 -0.007713 0.001724 0.002448 0.000891 0.006297 0.020932 0.010538 0.010645 -0.008954 0.008690 -0.003582 0.008818 -0.009508 -0.005912 0.000572 -0.000144 -0.015197 -0.003706 -0.007223 0.003743 0.011246 0.002320 -0.006705 -0.026971 0.015414 0.005039 0.031346 0.004089 -0.010685 0.006532 0.003183 -0.004569 -0.006291 0.000643 -0.003005 -0.003211 -0.007370 0.000996 -0.002234 0.002379 -0.002002 0.012513 0.006905 0.009089 0.009368 0.011620 0.001286 0.017753 0.003525 -0.003425 -0.001122 -0.022456 -0.000473 -0.001254 0.000821 -0.004580 -0.001078 -0.005701 0.001914 0.000248 -0.001775 0.000054 0.000329 0.007044 0.004026 0.002715 -0.010480 -0.003943 0.014190 0.007488 0.008089 0.003587 -0.004967 -0.001201 0.004493 0.011795 0.009206 -0.002699 0.011928 0.007662 -0.000906 0.002512 -0.003702 -0.009510 -0.010692 -0.008367 0.002356 0.015086 0.007061 0.003060 0.000361 0.005459 -0.009212 0.008268 -0.004799 0.003438 0.019161 0.008356 0.002476 0.006909 0.002734 -0.004071 -0.008195 -0.001591 -0.001655 -0.006219 -0.012261 0.000089 0.013795 -0.006403 0.009304 -0.000125 -0.002832 0.004948 -0.008388 0.001006 0.000580 0.002209 0.087818 0.013914 -0.031969 0.015380 0.061959 -0.069335 0.010179 0.019749 -0.008063 -0.081660 -0.035318 0.006901 0.049226 0.006335 -0.013695 -0.001626 -0.015619 -0.038146 -0.044462 0.012168 -0.032696 0.009105 0.005797 -0.048428 0.029731 0.109379 -0.039278 0.004070 -0.023818 -0.023951 -0.005658 0.088148 0.089757 -0.051110 0.006236 0.001590 0.025512 -0.005404 0.030223 -0.034926 -0.006166 0.027444 -0.009869 -0.007074 0.092422 0.049973 -0.002273 0.015676 -0.001941 -0.007487 -0.024951 -0.031697 0.075687 0.018120 0.012380 -0.045006 0.110080 -0.040642 -0.088703 0.043872 0.006484 -0.030137 -0.018189 0.003549 0.125057 0.038258 -0.030897 0.010952 0.023422 -0.037488 -0.008717 0.160042 -0.015544 -0.003192 0.076521 0.003697 0.033134 0.019978 -0.012501 0.012309 -0.031956 0.036392 0.077523 0.041665 0.004233 -0.014332 0.099750 0.083528 0.046750 0.017317 0.019882 -0.011332 0.008515 -0.001154 0.062550 0.006500 -0.001960 -0.007586 0.015097 0.004172 0.005689 0.125821 0.056043 0.028610 -0.014774 0.068561 0.000781 -0.012324 0.107850 -0.006610 -0.067167 -0.010924 -0.009061 0.033592 0.009426 0.001053 0.017924 0.008097 0.049634 -0.005200 0.004116 0.098914 0.130791 -0.094948 0.067530 0.045641 -0.008360 -0.001653 0.000166 -0.057103 -0.042695 0.010582 0.008631 0.006872 -0.002980 0.047588 0.032618 -0.002921 -0.030308 0.052962 0.029164 -0.066599 0.069497 0.027147 -0.014574 0.038457 0.017150 -0.023911 0.003111 -0.075032 0.026513 0.068260 0.003322 0.021855 0.043503 0.050363 -0.019028 -0.022104 0.026051 -0.010818 -0.013201 0.000962 0.018933 0.046170 0.113400 0.058891 -0.032562 -0.040180 0.005602 0.044938 0.078764 -0.000387 0.038206 -0.059936 0.034116 0.028336 -0.002060 -0.040318 0.000574 -0.040082 0.096351 -0.020309 0.043471 0.000765 0.009298 0.005718 0.151860 -0.031683 -0.049056 -0.029040 0.103918 0.006931 0.011106 -0.056696 0.037027 0.054616 -0.035617 -0.000133 -0.019562 -0.006412 0.009001 -0.063490 -0.003301 -0.068503 -0.005116 0.006767 0.028446 0.054517 -0.010222 -0.098081 0.055328 0.038359 -0.001025 -0.001814 0.087525 0.031094 -0.004644 0.002340 -0.005752 -0.001735 0.007644 0.102009 -0.002236 -0.018360 -0.005175 0.031027 0.073799 -0.012743 0.107840 0.026420 0.000496 -0.016410 0.012089 -0.005604 0.008364 0.033573 0.099960 -0.006293 0.063406 -0.060425 -0.012464 0.054305 -0.001192 -0.044503 0.077629 0.006650 -0.000609 -0.003992 0.033426 -0.052604 0.102241 0.001711 0.043834 -0.026399 -0.004270 -0.021670 -0.058633 -0.029270 -0.057950 0.027190 0.108518 0.111223 -0.053400 0.003049 0.091938 -0.006118 0.004980 -0.007121 -0.006981 -0.011674 -0.000536 0.045584 0.001246 -0.070175 -0.006149 0.012958 -0.002059 -0.005502 0.032418 -0.002570 0.011878 0.054281 -0.000121 -0.006202 0.002135 0.000589 -0.018180 -0.038097 0.071969 0.010830 0.006876 -0.071146 -0.039093 0.008603 0.087605 -0.042210 -0.041789 0.005061 -0.010583 0.036273 0.026464 -0.006205 -0.005871 0.001551 0.003101 0.085338 0.025823 0.016516 0.044084 0.018283 0.009481 0.121930 0.056258 0.151203 0.017950 -0.006297 0.051565 0.031450 0.013095 -0.051165 -0.033758 0.137168 -0.000557 -0.001959 0.051864 -0.050836 0.029385 0.062939 0.112218 0.046818 -0.011770 0.061726 -0.062304 -0.003851 -0.030282 0.124806 0.014162 -0.069759 -0.001026 0.001592 -0.018093 0.005058 0.062184 0.101326 0.003533 0.144722 -0.004659 0.058741 0.010210 0.112416 0.056585 -0.003115 0.046966 0.003576 -0.011005 0.006588 -0.004855 0.067798 0.048597 -0.005278 -0.104487 -0.005923 0.001802 0.037627 -0.047752 0.043717 0.005386 0.010877 0.131418 0.025385 -0.000703 -0.009114 0.002964 0.029145 -0.003847 0.003321 0.040674 -0.016653 -0.034521 -0.002230 0.027063 0.051447 0.006807 0.009377 -0.073914 0.038651 0.003664 0.003947 -0.009965 -0.001518 0.063941 0.077252 -0.071791 -0.042121 0.035146 -0.000196 -0.040173 0.030585 0.026427 0.018004 0.025334 0.086501 0.045163 0.009821 